{"learner":{"attributes":{"best_iteration":"92","best_score":"0.5032605000556604"},"feature_names":["innings_num","over","ball_in_innings","ball_in_match","phase","is_chasing","innings_runs","innings_wickets","wickets_in_hand","balls_remaining_in_innings","current_run_rate","target","runs_needed","required_run_rate","rr_gap","partnership_runs","partnership_balls","recent_dot_pct","recent_run_rate","recent_boundaries","balls_since_wicket","career_bat_avg_odi","career_bat_sr_odi","career_bowl_avg_odi","career_bowl_sr_odi","career_bowl_econ_odi","is_team1_batting"],"feature_types":[],"gradient_booster":{"model":{"cats":{"enc":[],"feature_segments":[],"sorted_idx":[]},"gbtree_model_param":{"num_parallel_tree":"1","num_trees":"113"},"iteration_indptr":[0,1,2,3,4,5,6,7,8,9,10,11,12,13,14,15,16,17,18,19,20,21,22,23,24,25,26,27,28,29,30,31,32,33,34,35,36,37,38,39,40,41,42,43,44,45,46,47,48,49,50,51,52,53,54,55,56,57,58,59,60,61,62,63,64,65,66,67,68,69,70,71,72,73,74,75,76,77,78,79,80,81,82,83,84,85,86,87,88,89,90,91,92,93,94,95,96,97,98,99,100,101,102,103,104,105,106,107,108,109,110,111,112,113],"tree_info":[0,0,0,0,0,0,0,0,0,0,0,0,0,0,0,0,0,0,0,0,0,0,0,0,0,0,0,0,0,0,0,0,0,0,0,0,0,0,0,0,0,0,0,0,0,0,0,0,0,0,0,0,0,0,0,0,0,0,0,0,0,0,0,0,0,0,0,0,0,0,0,0,0,0,0,0,0,0,0,0,0,0,0,0,0,0,0,0,0,0,0,0,0,0,0,0,0,0,0,0,0,0,0,0,0,0,0,0,0,0,0,0,0],"trees":[{"base_weights":[6.441747E-4,7.16605E-1,-1.1681295E-1,1.6275206E0,-1.4487292E0,-4.4487873E-1,1.4688186E-1,1.7955035E0,2.8060842E-1,-1.5347322E0,-1.0935503E-1,-5.6644924E-2,-1.2434367E0,6.522994E-1,-1.510818E-1,-9.006807E-1,1.8697305E0,7.003871E-1,-6.518823E-1,5.7692313E-1,-1.5774652E0,7.981667E-1,-4.6104318E-1,-8.035987E-1,4.628279E-2,2.5300294E-1,-1.3281753E0,1.3272417E-1,9.9263394E-1,-5.56551E-1,1.1214823E-1,6.7060393E-1,-1.4169568E0,9.850687E-1,1.920224E0,2.6892978E-1,1.2610035E0,-8.3529323E-1,4.7645572E-1,-3.717407E-1,1.9546231E0,-1.2432965E0,-1.6611998E0,1.3746318E0,9.375219E-2,-8.322647E-1,1.0217534E0,-1.1331817E0,1.17291786E-1,-1.11817144E-1,7.9010314E-1,1.5029337E0,1.3395676E-2,-2.7907345E-1,-1.4234074E0,-2.4274148E-2,1.7053199E0,1.2389255E0,4.1879693E-1,-6.568401E-1,6.869078E-1,6.2209237E-1,-1.816927E-1,-3.2410216E-2,1.888182E-1,-1.5746705E-1,5.864063E-2,1.500607E-1,-8.008761E-2,2.112346E-1,1.6289727E-1,6.684104E-2,-5.008304E-3,-6.938422E-2,1.3232164E-1,-2.2899589E-2,-1.0131822E-1,1.0793145E-1,-3.2880813E-2,-4.7548073E-3,-1.3789892E-1,2.1491125E-1,-1.6095832E-2,-1.3408993E-1,1.7781816E-1,-1.7942952E-1,-1.5049034E-1,1.6707374E-1,1.2869294E-2,1.14982165E-1,-9.5823534E-2,-4.246801E-2,-1.408175E-1,1.290033E-1,-1.6241972E-1,-8.364918E-2,-1.330451E-1,-6.160937E-2,4.2094085E-2,-7.283767E-2,7.071452E-4,4.970891E-2,1.09320655E-1,-1.1230635E-1,1.5937422E-1,-1.0415862E-1,3.0138893E-2,-1.1372997E-1,6.8188384E-2,-1.0936715E-1,-1.6216289E-1,1.7917974E-2,-6.8904124E-2,-1.8279653E-2,1.8303579E-1,1.13613985E-1,1.988878E-1,3.21498E-2,1.4672351E-1,-4.709994E-2,-9.724327E-2,-8.813932E-2,9.806804E-2,1.0851162E-1,2.6044864E-2,-2.546451E-2,1.0149902E-1],"categories":[],"categories_nodes":[],"categories_segments":[],"categories_sizes":[],"default_left":[0,0,0,0,0,0,1,0,0,0,0,0,0,0,0,0,0,1,1,0,0,1,0,0,0,0,0,0,0,0,0,0,0,0,0,0,0,0,0,0,0,0,0,1,0,1,0,0,0,0,0,0,0,0,0,0,0,0,0,0,0,0,0,0,0,0,0,0,0,0,0,0,0,0,0,0,0,0,0,0,0,0,0,0,0,0,0,0,0,0,0,0,0,0,0,0,0,0,0,0,0,0,0,0,0,0,0,0,0,0,0,0,0,0,0,0,0,0,0,0,0,0,0,0,0,0,0],"id":0,"left_children":[1,3,5,7,9,11,13,15,17,19,21,23,25,27,29,31,33,35,37,39,41,43,45,47,49,51,53,55,57,59,61,63,65,67,69,71,73,75,77,79,81,83,85,87,89,91,93,95,97,99,101,103,105,107,109,111,113,115,117,119,121,123,125,-1,-1,-1,-1,-1,-1,-1,-1,-1,-1,-1,-1,-1,-1,-1,-1,-1,-1,-1,-1,-1,-1,-1,-1,-1,-1,-1,-1,-1,-1,-1,-1,-1,-1,-1,-1,-1,-1,-1,-1,-1,-1,-1,-1,-1,-1,-1,-1,-1,-1,-1,-1,-1,-1,-1,-1,-1,-1,-1,-1,-1,-1,-1,-1],"loss_changes":[2.1167291E4,6.997304E4,1.8706264E4,5.649242E3,1.2098945E3,2.9872969E4,1.80533E4,4.4448125E3,1.0847782E3,8.916406E2,2.0300912E2,4.984802E3,3.997375E3,7.8619688E3,8.0495327E3,4.8403653E2,9.6328125E2,4.6181586E2,1.7846198E2,2.5758112E2,2.6866797E2,7.202665E1,2.5307512E2,2.3833765E3,6.7014175E3,5.061544E2,2.980043E3,4.344922E3,3.7962598E3,3.702704E3,6.8525303E3,1.798042E2,1.4264764E2,1.0772548E3,1.1402422E3,1.3779271E2,1.0194336E2,7.963147E1,5.9067673E1,3.821347E1,3.3386353E1,5.752759E2,1.5818164E2,3.5810165E1,9.11397E1,8.5554E1,6.754095E1,3.3733984E2,4.6134357E2,3.4449668E3,8.866323E2,6.6618774E1,4.3152E2,2.0492605E3,1.7857734E3,2.164341E3,3.7746484E2,1.4466367E3,8.2267456E2,1.6108193E3,1.0219293E3,2.7991592E3,2.5331802E3,0E0,0E0,0E0,0E0,0E0,0E0,0E0,0E0,0E0,0E0,0E0,0E0,0E0,0E0,0E0,0E0,0E0,0E0,0E0,0E0,0E0,0E0,0E0,0E0,0E0,0E0,0E0,0E0,0E0,0E0,0E0,0E0,0E0,0E0,0E0,0E0,0E0,0E0,0E0,0E0,0E0,0E0,0E0,0E0,0E0,0E0,0E0,0E0,0E0,0E0,0E0,0E0,0E0,0E0,0E0,0E0,0E0,0E0,0E0,0E0,0E0,0E0,0E0,0E0],"parents":[2147483647,0,0,1,1,2,2,3,3,4,4,5,5,6,6,7,7,8,8,9,9,10,10,11,11,12,12,13,13,14,14,15,15,16,16,17,17,18,18,19,19,20,20,21,21,22,22,23,23,24,24,25,25,26,26,27,27,28,28,29,29,30,30,31,31,32,32,33,33,34,34,35,35,36,36,37,37,38,38,39,39,40,40,41,41,42,42,43,43,44,44,45,45,46,46,47,47,48,48,49,49,50,50,51,51,52,52,53,53,54,54,55,55,56,56,57,57,58,58,59,59,60,60,61,61,62,62],"right_children":[2,4,6,8,10,12,14,16,18,20,22,24,26,28,30,32,34,36,38,40,42,44,46,48,50,52,54,56,58,60,62,64,66,68,70,72,74,76,78,80,82,84,86,88,90,92,94,96,98,100,102,104,106,108,110,112,114,116,118,120,122,124,126,-1,-1,-1,-1,-1,-1,-1,-1,-1,-1,-1,-1,-1,-1,-1,-1,-1,-1,-1,-1,-1,-1,-1,-1,-1,-1,-1,-1,-1,-1,-1,-1,-1,-1,-1,-1,-1,-1,-1,-1,-1,-1,-1,-1,-1,-1,-1,-1,-1,-1,-1,-1,-1,-1,-1,-1,-1,-1,-1,-1,-1,-1,-1,-1],"split_conditions":[-4.2E-2,1E0,1E0,1.95E2,2.2E2,2.424E0,2.7607143E1,3E0,5.755E0,3E0,1E1,5E0,5.25E0,5.33E-1,5E-1,1.4E1,5E0,8.2232346E1,9.492234E1,2.8E1,7E0,7.863248E1,6.169E0,2.06E2,1.53E2,4.035E0,5.9E1,3.374E0,9E0,2.107E0,8E0,3E0,5.6E1,5.8E1,1.01E2,4.971E0,8E0,5.972E0,9.908327E1,1.645E0,3.839E0,1.37E2,1.07E2,5.5691767E0,3.94E1,3.671831E1,8E1,5.36E-1,3E0,7E0,7E0,3.2727273E0,5.591398E1,4E0,3.637E0,2.25E2,3E1,2.169E0,5.357E0,1.82E2,5.9E1,9.6E1,2.49E2,-3.2410216E-2,1.888182E-1,-1.5746705E-1,5.864063E-2,1.500607E-1,-8.008761E-2,2.112346E-1,1.6289727E-1,6.684104E-2,-5.008304E-3,-6.938422E-2,1.3232164E-1,-2.2899589E-2,-1.0131822E-1,1.0793145E-1,-3.2880813E-2,-4.7548073E-3,-1.3789892E-1,2.1491125E-1,-1.6095832E-2,-1.3408993E-1,1.7781816E-1,-1.7942952E-1,-1.5049034E-1,1.6707374E-1,1.2869294E-2,1.14982165E-1,-9.5823534E-2,-4.246801E-2,-1.408175E-1,1.290033E-1,-1.6241972E-1,-8.364918E-2,-1.330451E-1,-6.160937E-2,4.2094085E-2,-7.283767E-2,7.071452E-4,4.970891E-2,1.09320655E-1,-1.1230635E-1,1.5937422E-1,-1.0415862E-1,3.0138893E-2,-1.1372997E-1,6.8188384E-2,-1.0936715E-1,-1.6216289E-1,1.7917974E-2,-6.8904124E-2,-1.8279653E-2,1.8303579E-1,1.13613985E-1,1.988878E-1,3.21498E-2,1.4672351E-1,-4.709994E-2,-9.724327E-2,-8.813932E-2,9.806804E-2,1.0851162E-1,2.6044864E-2,-2.546451E-2,1.0149902E-1],"split_indices":[14,26,26,12,12,14,21,8,13,8,8,8,13,17,17,12,8,22,22,12,8,22,13,6,6,13,12,14,8,14,8,9,15,12,12,13,8,13,22,13,13,12,12,25,21,21,6,17,8,8,8,25,22,8,14,6,12,14,13,6,12,6,12,0,0,0,0,0,0,0,0,0,0,0,0,0,0,0,0,0,0,0,0,0,0,0,0,0,0,0,0,0,0,0,0,0,0,0,0,0,0,0,0,0,0,0,0,0,0,0,0,0,0,0,0,0,0,0,0,0,0,0,0,0,0,0,0],"split_type":[0,0,0,0,0,0,0,0,0,0,0,0,0,0,0,0,0,0,0,0,0,0,0,0,0,0,0,0,0,0,0,0,0,0,0,0,0,0,0,0,0,0,0,0,0,0,0,0,0,0,0,0,0,0,0,0,0,0,0,0,0,0,0,0,0,0,0,0,0,0,0,0,0,0,0,0,0,0,0,0,0,0,0,0,0,0,0,0,0,0,0,0,0,0,0,0,0,0,0,0,0,0,0,0,0,0,0,0,0,0,0,0,0,0,0,0,0,0,0,0,0,0,0,0,0,0,0],"sum_hessian":[2.5170577E5,3.5473242E4,2.1623253E5,2.4969352E4,1.050389E4,9.635521E4,1.1987732E5,2.2200266E4,2.7690857E3,9.869979E3,6.3391095E2,6.4835363E4,3.1519848E4,4.4460504E4,7.541682E4,5.9450836E2,2.1605758E4,1.909663E3,8.5942267E2,1.955261E2,9.674452E3,1.7669215E2,4.572188E2,7.8512773E3,5.6984086E4,1.6891075E3,2.983074E4,1.75971E4,2.6863402E4,2.9687006E4,4.5729812E4,1.4695433E2,4.4755402E2,1.1677046E3,2.0438053E4,1.079978E3,8.296849E2,7.3948016E2,1.199425E2,1.16225266E2,7.930083E1,1.9416311E3,7.7328213E3,9.664788E1,8.0044266E1,3.6602286E2,9.1195946E1,5.7817734E3,2.0695037E3,4.69959E4,9.988187E3,2.7086188E2,1.4182456E3,2.4828591E3,2.734788E4,1.6000676E4,1.5964247E3,1.8795287E4,8.068115E3,2.7471787E4,2.215219E3,1.671711E4,2.9012701E4,8.128334E1,6.5671E1,4.1509024E2,3.2463776E1,9.062597E2,2.6144492E2,1.2310957E4,8.127095E3,4.7902655E2,6.0095154E2,2.5277138E1,8.044077E2,1.6826643E2,5.7121375E2,6.839696E1,5.1545536E1,8.87178E1,2.7507473E1,7.260982E1,6.691007E0,1.881412E3,6.0219063E1,4.1707275E3,3.5620938E3,7.7813934E1,1.8833946E1,3.9898228E1,4.014604E1,2.153513E2,1.5067157E2,8.326586E1,7.9300823E0,2.3111233E3,3.4706501E3,6.0566003E2,1.4638436E3,7.5962754E3,3.939962E4,5.079961E3,4.908225E3,8.673528E0,2.6218835E2,3.0357346E2,1.1146722E3,1.3114374E3,1.1714219E3,1.02702E4,1.707768E4,1.22517295E4,3.7489465E3,9.912603E1,1.4972987E3,1.6531992E4,2.2632952E3,7.3841455E3,6.839696E2,1.7291793E4,1.0179995E4,3.4917145E2,1.8660475E3,7.330122E3,9.386987E3,2.7346393E4,1.6663086E3],"tree_param":{"num_deleted":"0","num_feature":"27","num_nodes":"127","size_leaf_vector":"1"}},{"base_weights":[-2.2920429E-4,6.413945E-1,-1.05531715E-1,1.4516722E0,-1.3277059E0,-4.0488005E-1,1.3374256E-1,1.5783709E0,-3.377054E-2,-1.4058096E0,-9.42314E-2,-3.949958E-2,-1.1159922E0,-7.7321E-2,7.471024E-1,1.6209133E0,-5.9361035E-1,3.7656808E-1,-1.0999733E0,-1.4462475E0,5.657542E-1,-3.572987E-1,8.284469E-1,4.6088368E-1,-1.7315982E-1,4.0753E-1,-1.1873847E0,1.569036E-1,-7.116901E-1,1.2428664E0,2.6070617E-2,1.7373407E0,8.566815E-1,8.1390876E-1,-1.1617209E0,-1.4427778E-2,1.292357E0,-1.2335292E0,9.880949E-1,-1.5246514E0,-1.1316326E0,-5.926853E-1,1.5179472E0,-6.820705E-1,7.008575E-1,1.2816416E0,-5.5390185E-1,5.631995E-1,-5.030764E-1,1.4771085E-2,-6.2824094E-1,-7.0683837E-1,6.739209E-1,-4.0642577E-1,-1.2931267E0,-1.798019E-1,5.3579515E-1,-4.630191E-1,-1.0631512E0,1.5365769E0,9.240102E-1,-1.5337482E-1,1.3465034E0,1.8323603E-1,1.3748434E-1,5.487594E-2,1.2403456E-1,-2.0325243E-2,1.694374E-1,-1.3530703E-1,1.000245E-1,1.6530318E-2,-1.2814504E-1,5.6601275E-2,1.7899697E-1,1.7342396E-2,-1.3960189E-1,1.9770633E-1,-4.3183815E-2,-1.6067748E-1,-1.2728344E-1,-1.22793935E-1,1.6095906E-1,-2.1234382E-2,-1.5000093E-1,4.86637E-2,1.9376624E-1,-4.817031E-2,-1.5905617E-1,1.0561025E-1,-1.04388595E-1,1.5302365E-1,-1.2290136E-1,1.1260678E-1,-1.5524113E-1,7.346279E-2,1.0933201E-2,-3.4636747E-2,-1.8226849E-1,1.194258E-2,-6.933453E-2,-7.770017E-2,4.153698E-2,2.0265443E-2,-1.18242085E-1,1.4994729E-1,4.251366E-2,3.7504785E-2,-1.1780591E-1,-9.685865E-2,-1.4807889E-1,3.6143523E-2,-4.0599998E-2,4.2596683E-2,1.4873534E-1,-9.602982E-2,-1.0461603E-2,-1.1015973E-1,4.4543814E-2,1.2494171E-1,1.7612135E-1,7.47922E-2,1.8199351E-1,2.1145312E-2,-6.100439E-2,3.1892894E-4,1.6971363E-1],"categories":[],"categories_nodes":[],"categories_segments":[],"categories_sizes":[],"default_left":[0,0,0,0,0,0,0,0,0,0,0,0,0,0,0,0,0,0,1,0,0,0,0,0,0,0,0,0,0,0,0,0,1,0,0,0,0,0,0,0,0,1,0,0,0,1,0,0,0,0,0,0,0,0,0,0,0,0,0,0,0,0,0,0,0,0,0,0,0,0,0,0,0,0,0,0,0,0,0,0,0,0,0,0,0,0,0,0,0,0,0,0,0,0,0,0,0,0,0,0,0,0,0,0,0,0,0,0,0,0,0,0,0,0,0,0,0,0,0,0,0,0,0,0,0,0,0],"id":1,"left_children":[1,3,5,7,9,11,13,15,17,19,21,23,25,27,29,31,33,35,37,39,41,43,45,47,49,51,53,55,57,59,61,63,65,67,69,71,73,75,77,79,81,83,85,87,89,91,93,95,97,99,101,103,105,107,109,111,113,115,117,119,121,123,125,-1,-1,-1,-1,-1,-1,-1,-1,-1,-1,-1,-1,-1,-1,-1,-1,-1,-1,-1,-1,-1,-1,-1,-1,-1,-1,-1,-1,-1,-1,-1,-1,-1,-1,-1,-1,-1,-1,-1,-1,-1,-1,-1,-1,-1,-1,-1,-1,-1,-1,-1,-1,-1,-1,-1,-1,-1,-1,-1,-1,-1,-1,-1,-1],"loss_changes":[1.697447E4,5.651382E4,1.5458031E4,4.722797E3,9.9469727E2,2.4910074E4,1.5527624E4,2.1374375E3,8.636584E2,7.7506055E2,1.4981558E2,4.235842E3,3.539871E3,1.3259356E4,1.0976586E4,2.0163281E3,3.5671075E2,5.1045325E2,1.5420697E2,2.3301953E2,2.1698892E2,1.6544624E2,8.651541E1,1.3170857E3,4.274689E3,4.3310107E2,2.566418E3,8.314675E3,2.1026357E3,1.7026582E3,2.964905E3,6.753008E2,3.537456E2,1.1545017E2,1.3265356E2,2.2793167E2,1.5315186E2,1.1822089E2,4.7945385E1,1.5543555E2,5.0418848E2,3.0428503E1,4.572E1,6.6186676E1,7.128132E1,6.644812E1,5.9645943E1,9.390737E2,2.6440765E2,2.6216545E3,2.2682197E3,1.2206642E2,2.410368E2,2.2366255E3,1.6659297E3,4.224958E3,3.2042324E3,2.511903E3,5.7876074E2,6.086758E2,1.3754297E3,1.8354722E3,7.051228E2,0E0,0E0,0E0,0E0,0E0,0E0,0E0,0E0,0E0,0E0,0E0,0E0,0E0,0E0,0E0,0E0,0E0,0E0,0E0,0E0,0E0,0E0,0E0,0E0,0E0,0E0,0E0,0E0,0E0,0E0,0E0,0E0,0E0,0E0,0E0,0E0,0E0,0E0,0E0,0E0,0E0,0E0,0E0,0E0,0E0,0E0,0E0,0E0,0E0,0E0,0E0,0E0,0E0,0E0,0E0,0E0,0E0,0E0,0E0,0E0,0E0,0E0,0E0,0E0],"parents":[2147483647,0,0,1,1,2,2,3,3,4,4,5,5,6,6,7,7,8,8,9,9,10,10,11,11,12,12,13,13,14,14,15,15,16,16,17,17,18,18,19,19,20,20,21,21,22,22,23,23,24,24,25,25,26,26,27,27,28,28,29,29,30,30,31,31,32,32,33,33,34,34,35,35,36,36,37,37,38,38,39,39,40,40,41,41,42,42,43,43,44,44,45,45,46,46,47,47,48,48,49,49,50,50,51,51,52,52,53,53,54,54,55,55,56,56,57,57,58,58,59,59,60,60,61,61,62,62],"right_children":[2,4,6,8,10,12,14,16,18,20,22,24,26,28,30,32,34,36,38,40,42,44,46,48,50,52,54,56,58,60,62,64,66,68,70,72,74,76,78,80,82,84,86,88,90,92,94,96,98,100,102,104,106,108,110,112,114,116,118,120,122,124,126,-1,-1,-1,-1,-1,-1,-1,-1,-1,-1,-1,-1,-1,-1,-1,-1,-1,-1,-1,-1,-1,-1,-1,-1,-1,-1,-1,-1,-1,-1,-1,-1,-1,-1,-1,-1,-1,-1,-1,-1,-1,-1,-1,-1,-1,-1,-1,-1,-1,-1,-1,-1,-1,-1,-1,-1,-1,-1,-1,-1,-1,-1,-1,-1],"split_conditions":[-4.2E-2,1E0,1E0,2.9E2,2.21E2,2.295E0,5E0,8E0,3.33E2,8E0,3.18E2,4.07E-1,5.069E0,1.27E2,1.82E2,1.72E2,1.4E1,5.1E1,9.84E1,4E0,1.9E1,1E0,9.1E1,1.77E2,4E0,5.591398E1,7.4E1,2E0,1.82E2,1.33E2,3.458E0,-7.7E-1,8.178617E1,3E0,5.4E1,7E0,1.32E2,4.8E1,1.0101099E2,1.47E2,1.37E2,3.4E1,2.39E2,4.7E1,3.08E2,4.886E1,3.43E2,5E0,3.72E2,2.28E2,5E2,3.15E2,1.96E2,7E0,3.458E0,6.97076E1,1.866E0,3E0,1.1E2,6E0,2.32E2,2.3E2,4.1E1,1.8323603E-1,1.3748434E-1,5.487594E-2,1.2403456E-1,-2.0325243E-2,1.694374E-1,-1.3530703E-1,1.000245E-1,1.6530318E-2,-1.2814504E-1,5.6601275E-2,1.7899697E-1,1.7342396E-2,-1.3960189E-1,1.9770633E-1,-4.3183815E-2,-1.6067748E-1,-1.2728344E-1,-1.22793935E-1,1.6095906E-1,-2.1234382E-2,-1.5000093E-1,4.86637E-2,1.9376624E-1,-4.817031E-2,-1.5905617E-1,1.0561025E-1,-1.04388595E-1,1.5302365E-1,-1.2290136E-1,1.1260678E-1,-1.5524113E-1,7.346279E-2,1.0933201E-2,-3.4636747E-2,-1.8226849E-1,1.194258E-2,-6.933453E-2,-7.770017E-2,4.153698E-2,2.0265443E-2,-1.18242085E-1,1.4994729E-1,4.251366E-2,3.7504785E-2,-1.1780591E-1,-9.685865E-2,-1.4807889E-1,3.6143523E-2,-4.0599998E-2,4.2596683E-2,1.4873534E-1,-9.602982E-2,-1.0461603E-2,-1.1015973E-1,4.4543814E-2,1.2494171E-1,1.7612135E-1,7.47922E-2,1.8199351E-1,2.1145312E-2,-6.100439E-2,3.1892894E-4,1.6971363E-1],"split_indices":[14,26,26,11,12,14,7,7,11,7,11,17,13,6,6,12,12,16,22,7,12,7,6,12,7,22,12,7,6,6,14,14,22,9,15,7,6,12,22,12,12,23,11,6,11,21,11,7,11,12,3,3,11,7,14,22,14,7,12,7,11,6,12,0,0,0,0,0,0,0,0,0,0,0,0,0,0,0,0,0,0,0,0,0,0,0,0,0,0,0,0,0,0,0,0,0,0,0,0,0,0,0,0,0,0,0,0,0,0,0,0,0,0,0,0,0,0,0,0,0,0,0,0,0,0,0,0],"split_type":[0,0,0,0,0,0,0,0,0,0,0,0,0,0,0,0,0,0,0,0,0,0,0,0,0,0,0,0,0,0,0,0,0,0,0,0,0,0,0,0,0,0,0,0,0,0,0,0,0,0,0,0,0,0,0,0,0,0,0,0,0,0,0,0,0,0,0,0,0,0,0,0,0,0,0,0,0,0,0,0,0,0,0,0,0,0,0,0,0,0,0,0,0,0,0,0,0,0,0,0,0,0,0,0,0,0,0,0,0,0,0,0,0,0,0,0,0,0,0,0,0,0,0,0,0,0,0],"sum_hessian":[2.5123127E5,3.5418152E4,2.1581311E5,2.5092812E4,1.0325339E4,9.587113E4,1.1994198E5,2.3120703E4,1.9721105E3,9.710339E3,6.150002E2,6.333149E4,3.2539645E4,8.923586E4,3.0706121E4,2.267679E4,4.439143E2,1.4245177E3,5.475928E2,9.515438E3,1.9490016E2,4.790342E2,1.3596597E2,1.3350148E4,4.998134E4,1.4563475E3,3.1083297E4,6.5173105E4,2.4062752E4,1.8194973E4,1.2511147E4,1.9677701E4,2.9990876E3,1.2752724E2,3.1638705E2,9.989854E2,4.2553232E2,5.1505817E2,3.253462E1,7.6141113E3,1.9013273E3,8.80978E1,1.0680236E2,3.6680804E2,1.1222617E2,1.0245092E2,3.351506E1,1.2069494E4,1.2806544E3,3.5374152E4,1.4607189E4,2.8065524E2,1.1756923E3,3.707362E3,2.7375936E4,3.4507883E4,3.0665223E4,1.4093458E4,9.969295E3,9.46895E3,8.726022E3,1.1015092E4,1.4960557E3,1.5587718E4,4.0899832E3,1.6651208E3,1.3339668E3,5.9527264E1,6.799997E1,2.910052E2,2.5381887E1,8.7564246E2,1.23342964E2,1.7387367E2,2.5165865E2,5.3318718E1,4.6173944E2,1.8946333E1,1.35882845E1,5.7375737E3,1.8765374E3,1.8373287E3,6.3998497E1,6.2945633E1,2.515217E1,3.1517664E1,7.52847E1,3.0178067E2,6.502738E1,9.3569336E1,1.8656837E1,9.357591E1,8.875002E0,1.2446447E1,2.1068615E1,8.760125E3,3.309369E3,1.1458434E3,1.3481113E2,3.082E4,4.5541523E3,1.2785014E4,1.8221753E3,9.656344E1,1.840918E2,2.7109125E2,9.04601E2,1.8421918E3,1.8651703E3,1.0032328E4,1.7343607E4,1.0170866E4,2.4337016E4,2.7493398E4,3.1718252E3,5.9023516E3,8.1911064E3,9.721807E3,2.474883E2,4.158973E3,5.3099766E3,7.2942246E3,1.4317983E3,6.123573E3,4.8915186E3,3.098799E2,1.1861758E3],"tree_param":{"num_deleted":"0","num_feature":"27","num_nodes":"127","size_leaf_vector":"1"}},{"base_weights":[-1.5325581E-3,1.082418E-1,-4.8502403E-1,3.6832315E-1,-8.0080196E-2,-9.724008E-1,9.62084E-1,-1.5581302E-1,7.6702493E-1,4.015692E-1,-5.817343E-1,-2.855316E-1,-1.1351796E0,5.5900957E-2,1.1795514E0,-5.198437E-1,4.532683E-1,1.3642223E0,6.520506E-2,1.2621346E-1,8.761124E-1,-3.3547193E-1,-8.6834925E-1,7.0208764E-1,-9.630347E-1,-8.598913E-1,-1.4319955E0,-1.004839E0,9.578853E-1,5.8701676E-1,1.5175531E0,-3.0427408E-1,-8.458167E-1,4.843832E-1,-1.3839424E0,1.5927318E0,9.299871E-1,-1.9919357E-1,8.680406E-1,5.387923E-1,-1.0958332E-1,1.2967533E0,5.410762E-1,-1.8700805E-1,-1.0550095E0,-7.5152767E-1,-1.1835176E0,1.0578992E0,-2.3459859E-1,5.5656886E-1,-1.1718651E0,1.2963519E-2,-1.0737041E0,-1.2925831E0,-1.5884929E0,-2.9413107E-1,-1.2230537E0,-8.653722E-1,1.1516354E0,-9.934539E-1,9.510433E-1,1.5797951E0,5.074824E-1,-6.620854E-2,-1.3331209E-2,-6.53814E-2,-1.0642292E-1,2.9414296E-2,7.021528E-2,-7.7470005E-2,-1.5877278E-1,1.6646034E-1,1.04222275E-1,5.953276E-2,1.300946E-1,-1.9452302E-3,-7.5450234E-2,1.1974497E-1,7.7113616E-3,9.0743184E-2,2.3052907E-2,4.390328E-3,-7.490047E-2,1.4187187E-1,6.751265E-2,6.456355E-2,-3.330232E-2,-3.8328256E-2,1.0955649E-2,-1.18136786E-1,4.0589277E-2,-5.2404083E-2,-8.9893125E-2,-1.1356103E-1,-1.5238035E-1,7.850798E-2,1.7204125E-1,6.8911545E-2,-8.154878E-2,1.2115139E-1,-6.247426E-2,-5.8583032E-2,-1.4017592E-1,4.555167E-2,-3.5867766E-2,-9.054666E-2,-1.3543329E-1,-7.257723E-2,-1.439061E-1,-1.5939943E-1,-1.373788E-1,-9.043596E-2,6.280608E-2,-1.3225709E-1,5.1780296E-3,1.1504195E-2,-1.24800876E-1,5.3418983E-2,1.4163963E-1,-1.0553389E-1,1.8070343E-1,1.5182878E-1,5.8116723E-2,1.226174E-1,1.7184894E-1,6.931888E-2,-9.9676E-2],"categories":[],"categories_nodes":[],"categories_segments":[],"categories_sizes":[],"default_left":[0,0,0,0,0,0,0,0,0,0,0,0,0,0,0,0,0,0,0,0,0,0,0,0,0,0,0,0,0,0,0,0,0,0,0,0,0,0,0,0,0,1,0,0,0,0,0,0,0,0,0,0,0,0,1,0,0,0,0,0,1,0,0,0,0,0,0,0,0,0,0,0,0,0,0,0,0,0,0,0,0,0,0,0,0,0,0,0,0,0,0,0,0,0,0,0,0,0,0,0,0,0,0,0,0,0,0,0,0,0,0,0,0,0,0,0,0,0,0,0,0,0,0,0,0,0,0],"id":2,"left_children":[1,3,5,7,9,11,13,15,17,19,21,23,25,27,29,31,33,35,37,39,41,43,45,47,49,51,53,55,57,59,61,63,65,67,69,71,73,75,77,79,81,83,85,87,89,91,93,95,97,99,101,103,105,107,109,111,113,115,117,119,121,123,125,-1,-1,-1,-1,-1,-1,-1,-1,-1,-1,-1,-1,-1,-1,-1,-1,-1,-1,-1,-1,-1,-1,-1,-1,-1,-1,-1,-1,-1,-1,-1,-1,-1,-1,-1,-1,-1,-1,-1,-1,-1,-1,-1,-1,-1,-1,-1,-1,-1,-1,-1,-1,-1,-1,-1,-1,-1,-1,-1,-1,-1,-1,-1,-1],"loss_changes":[1.325015E4,9.965111E3,3.2580727E4,1.7856605E4,2.8513654E4,3.8633223E3,2.293497E3,8.1858154E3,2.0340686E4,7.8668135E3,4.0796816E3,4.431373E3,2.2813633E3,2.1570876E3,1.8789287E3,1.6235205E3,7.9017676E2,2.600254E3,4.7364067E3,3.7065776E3,3.114789E3,3.3212634E3,9.826387E2,8.983877E2,1.2471323E3,2.7053232E3,2.9118945E2,1.6032898E2,4.314121E2,1.9633833E3,3.749082E2,8.50871E2,3.8502295E2,5.624685E2,2.7358856E1,6.779336E2,1.121854E3,1.6753813E3,1.4401421E3,1.5743591E3,2.3794695E3,7.42084E2,1.1250332E3,1.5003877E3,9.8214355E2,6.531328E2,1.16006836E2,3.5167334E2,3.9906314E2,3.68455E2,4.644756E2,4.694279E2,5.4849414E2,5.8956934E2,5.286133E0,1.382799E2,1.0059949E2,4.426423E1,1.7936267E2,1.12659485E2,5.809021E2,2.7395605E2,9.800275E1,0E0,0E0,0E0,0E0,0E0,0E0,0E0,0E0,0E0,0E0,0E0,0E0,0E0,0E0,0E0,0E0,0E0,0E0,0E0,0E0,0E0,0E0,0E0,0E0,0E0,0E0,0E0,0E0,0E0,0E0,0E0,0E0,0E0,0E0,0E0,0E0,0E0,0E0,0E0,0E0,0E0,0E0,0E0,0E0,0E0,0E0,0E0,0E0,0E0,0E0,0E0,0E0,0E0,0E0,0E0,0E0,0E0,0E0,0E0,0E0,0E0,0E0,0E0,0E0],"parents":[2147483647,0,0,1,1,2,2,3,3,4,4,5,5,6,6,7,7,8,8,9,9,10,10,11,11,12,12,13,13,14,14,15,15,16,16,17,17,18,18,19,19,20,20,21,21,22,22,23,23,24,24,25,25,26,26,27,27,28,28,29,29,30,30,31,31,32,32,33,33,34,34,35,35,36,36,37,37,38,38,39,39,40,40,41,41,42,42,43,43,44,44,45,45,46,46,47,47,48,48,49,49,50,50,51,51,52,52,53,53,54,54,55,55,56,56,57,57,58,58,59,59,60,60,61,61,62,62],"right_children":[2,4,6,8,10,12,14,16,18,20,22,24,26,28,30,32,34,36,38,40,42,44,46,48,50,52,54,56,58,60,62,64,66,68,70,72,74,76,78,80,82,84,86,88,90,92,94,96,98,100,102,104,106,108,110,112,114,116,118,120,122,124,126,-1,-1,-1,-1,-1,-1,-1,-1,-1,-1,-1,-1,-1,-1,-1,-1,-1,-1,-1,-1,-1,-1,-1,-1,-1,-1,-1,-1,-1,-1,-1,-1,-1,-1,-1,-1,-1,-1,-1,-1,-1,-1,-1,-1,-1,-1,-1,-1,-1,-1,-1,-1,-1,-1,-1,-1,-1,-1,-1,-1,-1,-1,-1,-1],"split_conditions":[6.19E0,1E0,1E0,2.31E-1,4.341E0,9.5E1,8.9E1,4.62E0,4.638E0,4E0,5.209E0,6E0,4E0,6E0,3E0,4E0,1E1,3.839E0,1.09E2,6.97076E1,3.556E0,2.31E-1,6E1,9.559E0,2.7E1,1.72E2,6E0,4.5E0,2.2E1,1.84E2,5.814E0,3.171E0,6E0,5.306E0,1.7E1,5E0,4.308E0,3E0,5E0,3.19E0,1E0,3.6444443E1,1E0,4E0,2.72E2,1.08E2,1.46E2,2.23E2,4.9E1,8E0,7E0,4.07E-1,7.358E0,1.31E2,6.482972E0,7.925E0,1.075E2,1.45E1,7E0,9.94E0,3.36E1,1.31E2,8.9E1,-6.620854E-2,-1.3331209E-2,-6.53814E-2,-1.0642292E-1,2.9414296E-2,7.021528E-2,-7.7470005E-2,-1.5877278E-1,1.6646034E-1,1.04222275E-1,5.953276E-2,1.300946E-1,-1.9452302E-3,-7.5450234E-2,1.1974497E-1,7.7113616E-3,9.0743184E-2,2.3052907E-2,4.390328E-3,-7.490047E-2,1.4187187E-1,6.751265E-2,6.456355E-2,-3.330232E-2,-3.8328256E-2,1.0955649E-2,-1.18136786E-1,4.0589277E-2,-5.2404083E-2,-8.9893125E-2,-1.1356103E-1,-1.5238035E-1,7.850798E-2,1.7204125E-1,6.8911545E-2,-8.154878E-2,1.2115139E-1,-6.247426E-2,-5.8583032E-2,-1.4017592E-1,4.555167E-2,-3.5867766E-2,-9.054666E-2,-1.3543329E-1,-7.257723E-2,-1.439061E-1,-1.5939943E-1,-1.373788E-1,-9.043596E-2,6.280608E-2,-1.3225709E-1,5.1780296E-3,1.1504195E-2,-1.24800876E-1,5.3418983E-2,1.4163963E-1,-1.0553389E-1,1.8070343E-1,1.5182878E-1,5.8116723E-2,1.226174E-1,1.7184894E-1,6.931888E-2,-9.9676E-2],"split_indices":[13,26,26,13,10,12,12,10,13,7,10,7,7,7,7,7,12,13,6,22,10,13,15,13,12,12,7,10,12,12,10,10,7,10,12,7,10,7,7,10,5,21,5,7,11,6,16,6,12,7,7,17,13,12,25,13,22,21,7,13,21,12,15,0,0,0,0,0,0,0,0,0,0,0,0,0,0,0,0,0,0,0,0,0,0,0,0,0,0,0,0,0,0,0,0,0,0,0,0,0,0,0,0,0,0,0,0,0,0,0,0,0,0,0,0,0,0,0,0,0,0,0,0,0,0,0,0],"split_type":[0,0,0,0,0,0,0,0,0,0,0,0,0,0,0,0,0,0,0,0,0,0,0,0,0,0,0,0,0,0,0,0,0,0,0,0,0,0,0,0,0,0,0,0,0,0,0,0,0,0,0,0,0,0,0,0,0,0,0,0,0,0,0,0,0,0,0,0,0,0,0,0,0,0,0,0,0,0,0,0,0,0,0,0,0,0,0,0,0,0,0,0,0,0,0,0,0,0,0,0,0,0,0,0,0,0,0,0,0,0,0,0,0,0,0,0,0,0,0,0,0,0,0,0,0,0,0],"sum_hessian":[2.4964772E5,2.0345505E5,4.6192684E4,8.544735E4,1.1800769E5,3.4555082E4,1.1637603E4,3.6916836E4,4.853052E4,6.0204344E4,5.7803344E4,6.6207266E3,2.7934355E4,2.252544E3,9.385059E3,2.3106738E4,1.3810098E4,2.6219068E4,2.2311451E4,3.8098684E4,2.2105658E4,3.109144E4,2.6711902E4,2.693819E3,3.9269077E3,1.4494764E4,1.3439593E4,1.0351207E3,1.2174232E3,3.4099595E3,5.9750986E3,1.3909898E4,9.19684E3,1.3580829E4,2.2926794E2,1.7177176E4,9.041892E3,1.6784535E4,5.5269155E3,1.3855E4,2.4243686E4,9.799469E3,1.2306189E4,2.5774572E4,5.316868E3,1.9490764E4,7.221139E3,1.952144E3,7.416749E2,4.742501E2,3.4526577E3,2.852175E3,1.1642588E4,7.1126763E3,6.326916E3,2.437134E2,7.914073E2,1.1661046E2,1.1008127E3,6.3805E2,2.7719097E3,5.627745E3,3.4735394E2,4.496393E3,9.413505E3,4.89645E3,4.3003896E3,7.249833E3,6.3309966E3,5.8669514E1,1.7059843E2,1.5191795E4,1.9853809E3,4.7548887E3,4.2870034E3,1.2681007E4,4.1035293E3,3.9014905E3,1.6254253E3,6.3087173E3,7.546282E3,1.9551482E4,4.6922036E3,8.19107E3,1.6083992E3,1.0991637E4,1.3145524E3,1.5509603E4,1.026497E4,4.89378E3,4.230883E2,7.6653823E3,1.1825381E4,6.333772E3,8.873668E2,1.3842872E3,5.678569E2,2.8626996E2,4.5540494E2,3.0508096E2,1.6916914E2,9.7381213E2,2.4788457E3,1.3017798E3,1.5503951E3,7.2815254E3,4.3610625E3,1.4618499E3,5.6508267E3,6.1625874E3,1.6432852E2,1.4667538E2,9.703802E1,7.340665E2,5.734074E1,3.293129E1,8.367917E1,3.3127283E2,7.695399E2,6.248649E2,1.3185049E1,1.0928313E3,1.6790784E3,1.5882117E3,4.0395332E3,3.0966354E2,3.769038E1],"tree_param":{"num_deleted":"0","num_feature":"27","num_nodes":"127","size_leaf_vector":"1"}},{"base_weights":[-1.2864555E-3,9.650863E-2,-4.5033044E-1,3.2704955E-1,-7.142992E-2,-9.073091E-1,8.878377E-1,-1.3947129E-1,6.788521E-1,3.835876E-1,-5.124894E-1,-4.67242E-1,-1.1299627E0,4.5815033E-1,1.2620268E0,-4.7209698E-1,4.126451E-1,1.2385904E0,2.8302582E-2,1.3698073E-1,8.133098E-1,-2.8645507E-1,-7.9186064E-1,-1.4103086E-1,-9.778782E-1,-8.9066344E-1,-1.3459864E0,-1.4553688E-1,9.149016E-1,1.3844591E0,6.2747484E-1,-2.7571708E-1,-7.7429193E-1,4.5627713E-1,-6.3654095E-1,1.5352465E0,9.3943936E-1,-2.16661E-1,7.498748E-1,4.8701325E-1,-9.1552444E-2,1.2106392E0,5.2063006E-1,-1.5003073E-1,-9.448577E-1,-6.842155E-1,-1.0867888E0,-6.197432E-1,5.8608866E-1,-1.2213521E0,-6.275811E-1,-1.0152385E0,-2.6983893E-2,-9.0267396E-1,-1.3733951E0,2.1875417E-1,-9.4885325E-1,1.2266449E0,3.27422E-1,1.1020384E0,1.556207E0,-4.7249156E-1,1.2891674E0,-5.481539E-2,-8.221624E-3,-1.0925682E-1,-6.398859E-2,8.27179E-3,5.519436E-2,-3.914581E-2,-1.3477176E-1,1.5741451E-1,9.365617E-2,7.0938654E-2,1.3594805E-1,9.686427E-3,-5.1044066E-2,1.0381889E-1,4.8753014E-3,8.166743E-2,2.240404E-2,4.7216318E-3,-6.715042E-2,9.72883E-2,1.4768575E-1,6.1154902E-2,-2.7044443E-2,-3.3717316E-2,1.2814611E-2,-1.2295897E-1,-1.8491058E-2,-4.826228E-2,-8.174227E-2,-1.0233217E-1,-1.3737123E-1,-2.1835633E-2,-9.5796436E-2,9.3064845E-2,4.787691E-4,-1.2668408E-1,-2.6589368E-2,4.328264E-2,-1.0255662E-1,-1.3316514E-1,-9.101735E-2,3.869569E-2,-9.42166E-2,-1.2283262E-1,-9.591122E-3,-1.4790569E-1,-1.2514162E-1,4.597933E-2,-1.1655271E-1,-1.4385502E-1,-4.781735E-2,9.509027E-2,1.5817098E-1,-4.7647636E-2,1.0109576E-1,1.4424229E-1,7.964608E-2,1.567642E-1,-5.376953E-2,-1.03666425E-1,4.7472913E-2,1.823892E-2,1.562232E-1],"categories":[],"categories_nodes":[],"categories_segments":[],"categories_sizes":[],"default_left":[0,0,0,0,0,0,0,0,0,0,0,0,0,0,0,0,0,0,0,0,0,0,0,0,0,0,0,0,0,0,0,0,0,0,0,0,0,0,0,0,0,0,0,0,0,0,0,0,0,0,0,1,0,0,0,0,0,0,0,1,0,0,0,0,0,0,0,0,0,0,0,0,0,0,0,0,0,0,0,0,0,0,0,0,0,0,0,0,0,0,0,0,0,0,0,0,0,0,0,0,0,0,0,0,0,0,0,0,0,0,0,0,0,0,0,0,0,0,0,0,0,0,0,0,0,0,0],"id":3,"left_children":[1,3,5,7,9,11,13,15,17,19,21,23,25,27,29,31,33,35,37,39,41,43,45,47,49,51,53,55,57,59,61,63,65,67,69,71,73,75,77,79,81,83,85,87,89,91,93,95,97,99,101,103,105,107,109,111,113,115,117,119,121,123,125,-1,-1,-1,-1,-1,-1,-1,-1,-1,-1,-1,-1,-1,-1,-1,-1,-1,-1,-1,-1,-1,-1,-1,-1,-1,-1,-1,-1,-1,-1,-1,-1,-1,-1,-1,-1,-1,-1,-1,-1,-1,-1,-1,-1,-1,-1,-1,-1,-1,-1,-1,-1,-1,-1,-1,-1,-1,-1,-1,-1,-1,-1,-1,-1],"loss_changes":[1.0872659E4,7.871526E3,2.7077396E4,1.4062984E4,2.3606586E4,3.2335684E3,1.811791E3,6.765304E3,1.7787576E4,6.1354375E3,3.7715527E3,1.8473472E3,1.1317812E3,1.4473256E3,4.6717676E2,1.364041E3,6.343093E2,2.3287227E3,3.9936248E3,2.9428528E3,2.4543438E3,2.9656194E3,8.473164E2,2.356451E3,3.6795264E2,1.1190693E3,1.3869727E2,6.6201196E2,5.468296E2,2.4320312E2,7.1114197E2,7.345785E2,3.86625E2,4.7516626E2,9.592641E1,3.055039E2,1.2625967E3,1.5536677E3,1.1574685E3,1.2595667E3,1.7912979E3,5.6528906E2,8.7461304E2,1.4239569E3,1.2260171E3,5.2519824E2,1.2863477E2,5.5396436E2,5.3832434E2,1.1046826E2,7.494458E2,3.0097656E2,4.974514E2,1.7682715E2,1.3791406E2,5.19961E2,1.6198468E2,1.895852E2,5.70442E2,1.9781665E2,7.596582E1,1.9683362E2,1.840138E2,0E0,0E0,0E0,0E0,0E0,0E0,0E0,0E0,0E0,0E0,0E0,0E0,0E0,0E0,0E0,0E0,0E0,0E0,0E0,0E0,0E0,0E0,0E0,0E0,0E0,0E0,0E0,0E0,0E0,0E0,0E0,0E0,0E0,0E0,0E0,0E0,0E0,0E0,0E0,0E0,0E0,0E0,0E0,0E0,0E0,0E0,0E0,0E0,0E0,0E0,0E0,0E0,0E0,0E0,0E0,0E0,0E0,0E0,0E0,0E0,0E0,0E0,0E0,0E0],"parents":[2147483647,0,0,1,1,2,2,3,3,4,4,5,5,6,6,7,7,8,8,9,9,10,10,11,11,12,12,13,13,14,14,15,15,16,16,17,17,18,18,19,19,20,20,21,21,22,22,23,23,24,24,25,25,26,26,27,27,28,28,29,29,30,30,31,31,32,32,33,33,34,34,35,35,36,36,37,37,38,38,39,39,40,40,41,41,42,42,43,43,44,44,45,45,46,46,47,47,48,48,49,49,50,50,51,51,52,52,53,53,54,54,55,55,56,56,57,57,58,58,59,59,60,60,61,61,62,62],"right_children":[2,4,6,8,10,12,14,16,18,20,22,24,26,28,30,32,34,36,38,40,42,44,46,48,50,52,54,56,58,60,62,64,66,68,70,72,74,76,78,80,82,84,86,88,90,92,94,96,98,100,102,104,106,108,110,112,114,116,118,120,122,124,126,-1,-1,-1,-1,-1,-1,-1,-1,-1,-1,-1,-1,-1,-1,-1,-1,-1,-1,-1,-1,-1,-1,-1,-1,-1,-1,-1,-1,-1,-1,-1,-1,-1,-1,-1,-1,-1,-1,-1,-1,-1,-1,-1,-1,-1,-1,-1,-1,-1,-1,-1,-1,-1,-1,-1,-1,-1,-1,-1,-1,-1,-1,-1,-1],"split_conditions":[6.234E0,1E0,1E0,2.31E-1,4.286E0,4.67E-1,4.78E-1,4.62E0,4.661E0,4E0,5.194E0,9.059E0,7.507E0,7.727E0,1.68E2,4E0,8E0,3.36E0,1.08E2,7.0509384E1,3.5E0,2.31E-1,6E1,1.61E2,2.67E2,1.43E2,2.37E2,1.64E2,2.14E2,3E0,6E0,3.451E0,3.405E0,7.3E1,2.7E2,6E0,2.9E1,5.442E0,5E0,3.15E0,2E0,6E0,2E0,4E0,2.49E2,1.09E2,2E0,7.094E0,5E0,2.6E2,1.2136E1,6.373468E1,6E0,3.722E0,4.308E0,7.7E1,4E0,9.449E0,6E0,7.439024E1,7.6E0,8.384E0,2.47E2,-5.481539E-2,-8.221624E-3,-1.0925682E-1,-6.398859E-2,8.27179E-3,5.519436E-2,-3.914581E-2,-1.3477176E-1,1.5741451E-1,9.365617E-2,7.0938654E-2,1.3594805E-1,9.686427E-3,-5.1044066E-2,1.0381889E-1,4.8753014E-3,8.166743E-2,2.240404E-2,4.7216318E-3,-6.715042E-2,9.72883E-2,1.4768575E-1,6.1154902E-2,-2.7044443E-2,-3.3717316E-2,1.2814611E-2,-1.2295897E-1,-1.8491058E-2,-4.826228E-2,-8.174227E-2,-1.0233217E-1,-1.3737123E-1,-2.1835633E-2,-9.5796436E-2,9.3064845E-2,4.787691E-4,-1.2668408E-1,-2.6589368E-2,4.328264E-2,-1.0255662E-1,-1.3316514E-1,-9.101735E-2,3.869569E-2,-9.42166E-2,-1.2283262E-1,-9.591122E-3,-1.4790569E-1,-1.2514162E-1,4.597933E-2,-1.1655271E-1,-1.4385502E-1,-4.781735E-2,9.509027E-2,1.5817098E-1,-4.7647636E-2,1.0109576E-1,1.4424229E-1,7.964608E-2,1.567642E-1,-5.376953E-2,-1.03666425E-1,4.7472913E-2,1.823892E-2,1.562232E-1],"split_indices":[13,26,26,13,10,17,17,10,13,7,10,13,13,13,6,7,7,13,6,22,10,13,15,6,2,6,11,6,6,7,7,10,10,6,11,7,15,13,7,10,0,7,0,7,11,6,0,13,7,6,13,22,7,10,10,15,7,13,7,22,18,13,11,0,0,0,0,0,0,0,0,0,0,0,0,0,0,0,0,0,0,0,0,0,0,0,0,0,0,0,0,0,0,0,0,0,0,0,0,0,0,0,0,0,0,0,0,0,0,0,0,0,0,0,0,0,0,0,0,0,0,0,0,0,0,0,0],"split_type":[0,0,0,0,0,0,0,0,0,0,0,0,0,0,0,0,0,0,0,0,0,0,0,0,0,0,0,0,0,0,0,0,0,0,0,0,0,0,0,0,0,0,0,0,0,0,0,0,0,0,0,0,0,0,0,0,0,0,0,0,0,0,0,0,0,0,0,0,0,0,0,0,0,0,0,0,0,0,0,0,0,0,0,0,0,0,0,0,0,0,0,0,0,0,0,0,0,0,0,0,0,0,0,0,0,0,0,0,0,0,0,0,0,0,0,0,0,0,0,0,0,0,0,0,0,0,0],"sum_hessian":[2.4758617E5,2.0330923E5,4.4276938E4,8.568396E4,1.1762527E5,3.300589E4,1.1271047E4,3.683635E4,4.8847613E4,5.7896582E4,5.972869E4,1.1089998E4,2.1915893E4,5.247492E3,6.0235547E3,2.2987527E4,1.3848823E4,2.6255904E4,2.2591707E4,3.6786844E4,2.1109738E4,3.3017145E4,2.6711549E4,6.767789E3,4.322209E3,1.0400216E4,1.1515676E4,2.2604893E3,2.9870027E3,5.048333E3,9.752217E2,1.3934301E4,9.053226E3,1.3296436E4,5.523878E2,1.318085E4,1.3075056E4,1.6866477E4,5.725231E3,1.4530339E4,2.2256506E4,8.952741E3,1.2156997E4,2.7351088E4,5.666055E3,1.9571508E4,7.1400415E3,4.081082E3,2.6867068E3,2.5484338E3,1.773775E3,9.089057E3,1.3111592E3,6.725014E2,1.0843174E4,1.555722E3,7.047673E2,1.9507555E3,1.0362473E3,1.9118765E3,3.1364568E3,3.6640814E2,6.0881354E2,5.7860625E3,8.148239E3,2.6858801E3,6.3673457E3,2.7112778E3,1.0585157E4,4.1196762E2,1.4042021E2,1.2375165E4,8.056851E2,8.44984E3,4.6252153E3,8.159368E3,8.707108E3,4.0566013E3,1.6686299E3,6.4466963E3,8.0836426E3,1.7960016E4,4.296489E3,4.731632E3,4.22111E3,1.0904015E4,1.252982E3,1.6350882E4,1.1000205E4,4.121297E3,1.5447584E3,7.7887764E3,1.1782731E4,5.8504854E3,1.2895559E3,1.8670225E3,2.2140596E3,1.6864695E3,1.00023737E3,2.4323076E3,1.1612621E2,4.8402686E2,1.2897482E3,2.2627878E3,6.826269E3,9.032104E2,4.0794873E2,4.7873575E2,1.9376566E2,5.804245E3,5.038929E3,1.3255734E3,2.301487E2,3.4439804E2,3.603692E2,1.1000999E3,8.5065564E2,4.7633646E2,5.599109E2,9.026687E2,1.00920776E3,3.1196711E3,1.6785452E1,2.2957617E2,1.3683195E2,1.2081144E2,4.8800214E2],"tree_param":{"num_deleted":"0","num_feature":"27","num_nodes":"127","size_leaf_vector":"1"}},{"base_weights":[-8.5705594E-4,9.311276E-2,-4.1658688E-1,5.432908E-1,2.0113686E-2,-3.251379E-1,-7.7593523E-1,5.947617E-1,-2.2042118E-1,1.766987E-1,-1.748992E-1,-6.462407E-1,-2.4975233E-1,-6.2811565E-1,-1.1174875E0,1.045328E0,5.5480856E-1,4.1433673E-2,-7.3425686E-1,2.9534176E-1,6.008533E-3,-1.4102791E-1,-6.472569E-1,-8.838344E-1,-5.3486556E-1,6.992801E-2,-3.264528E-1,-8.829416E-1,-1.407053E-1,-6.051359E-1,-1.1757958E0,-1.4926848E-1,1.0596389E0,5.748429E-1,-3.9180142E-1,-8.908809E-2,1.4569083E0,-3.066337E-1,-9.6817297E-1,4.45925E-1,1.5576153E-1,-2.8346773E-2,2.8962424E-1,-1.7177154E-1,3.6907336E-1,-5.218628E-1,-9.3469715E-1,8.074591E-2,-9.094591E-1,-6.6053843E-1,-2.9034632E-1,3.231225E-1,-3.3091587E-1,-4.3744937E-1,-1.6488144E-1,-9.395675E-1,2.1779379E-1,5.7170015E-2,-5.521191E-1,4.839805E-2,-1.2516296E0,-1.364443E0,-1.0618583E0,1.366674E-1,9.5855266E-2,5.0473124E-2,7.73494E-2,1.3112868E-2,-6.881554E-2,-2.1050652E-2,1.3568765E-1,-1.589599E-1,1.5628703E-1,-4.9766093E-2,1.3727707E-1,-1.7205479E-2,-1.21554926E-1,4.829577E-2,-6.4709038E-3,1.8181575E-2,-1.958707E-2,1.1780879E-2,-8.406614E-3,3.627002E-2,-4.903712E-2,-1.4233969E-2,-4.489114E-2,1.4149358E-2,6.4417176E-2,-1.6878253E-2,-5.9492793E-2,-5.158937E-2,-1.1023568E-1,5.4670293E-2,-9.661138E-2,-9.406168E-2,-3.0090655E-3,-7.286931E-2,-2.0112846E-2,8.496223E-2,-3.7123945E-2,-1.9195715E-3,6.421885E-2,-5.608336E-2,3.9647546E-2,-3.7891462E-3,-5.2119114E-2,4.0515717E-2,-2.3847356E-2,-1.0904213E-1,-7.6150015E-2,1.3201267E-1,-6.9210194E-2,-8.222277E-3,8.763443E-2,-6.639739E-2,1.0738001E-1,7.7064835E-2,-6.7591764E-2,-9.879119E-2,-1.5780202E-1,-5.994157E-2,-1.3844E-1,-1.342337E-1,-9.202803E-2],"categories":[],"categories_nodes":[],"categories_segments":[],"categories_sizes":[],"default_left":[0,0,0,0,0,1,0,0,0,1,0,1,0,0,0,0,0,0,0,0,0,0,1,0,0,0,0,0,0,0,0,0,1,0,0,1,0,1,0,0,0,0,0,0,0,0,0,0,0,0,0,0,0,0,0,1,0,0,0,0,0,0,1,0,0,0,0,0,0,0,0,0,0,0,0,0,0,0,0,0,0,0,0,0,0,0,0,0,0,0,0,0,0,0,0,0,0,0,0,0,0,0,0,0,0,0,0,0,0,0,0,0,0,0,0,0,0,0,0,0,0,0,0,0,0],"id":4,"left_children":[1,3,5,7,9,11,13,15,17,19,21,23,25,27,29,31,33,35,37,39,41,43,45,47,49,51,53,55,57,59,61,-1,63,65,67,69,71,73,75,77,79,81,83,85,87,89,91,93,95,97,99,101,103,105,107,109,111,113,115,117,119,121,123,-1,-1,-1,-1,-1,-1,-1,-1,-1,-1,-1,-1,-1,-1,-1,-1,-1,-1,-1,-1,-1,-1,-1,-1,-1,-1,-1,-1,-1,-1,-1,-1,-1,-1,-1,-1,-1,-1,-1,-1,-1,-1,-1,-1,-1,-1,-1,-1,-1,-1,-1,-1,-1,-1,-1,-1,-1,-1,-1,-1,-1,-1],"loss_changes":[9.574315E3,6.569102E3,1.4845771E3,1.0965195E3,5.252418E3,8.7174414E2,4.6203564E2,4.6981445E2,2.370831E2,1.9320256E3,1.2255198E3,1.8073584E2,7.153241E2,7.946741E2,8.1956055E1,7.884497E1,4.554619E2,2.1592056E2,5.9199738E1,1.1828989E3,3.8119858E2,1.1210316E3,1.8424146E2,5.4055542E1,1.4315698E2,5.731053E2,4.218728E2,2.6211328E2,1.7897908E2,1.2039101E2,5.19292E1,0E0,6.436133E1,3.2701562E2,7.728238E1,1.882027E2,3.4335693E1,6.8625084E1,7.541989E1,5.1199658E2,2.6764172E2,2.8418985E2,2.4111264E2,5.498395E2,2.5431055E2,9.201709E1,1.0865051E2,2.8545103E1,5.8264893E1,9.6305176E1,1.4651535E2,3.7799332E2,3.6582855E2,4.6661206E2,4.0209564E2,1.06525635E2,2.079344E2,1.6965895E2,1.3056071E2,7.511639E1,1.0767792E1,1.3393433E1,6.0424683E1,0E0,0E0,0E0,0E0,0E0,0E0,0E0,0E0,0E0,0E0,0E0,0E0,0E0,0E0,0E0,0E0,0E0,0E0,0E0,0E0,0E0,0E0,0E0,0E0,0E0,0E0,0E0,0E0,0E0,0E0,0E0,0E0,0E0,0E0,0E0,0E0,0E0,0E0,0E0,0E0,0E0,0E0,0E0,0E0,0E0,0E0,0E0,0E0,0E0,0E0,0E0,0E0,0E0,0E0,0E0,0E0,0E0,0E0,0E0,0E0,0E0,0E0],"parents":[2147483647,0,0,1,1,2,2,3,3,4,4,5,5,6,6,7,7,8,8,9,9,10,10,11,11,12,12,13,13,14,14,15,15,16,16,17,17,18,18,19,19,20,20,21,21,22,22,23,23,24,24,25,25,26,26,27,27,28,28,29,29,30,30,32,32,33,33,34,34,35,35,36,36,37,37,38,38,39,39,40,40,41,41,42,42,43,43,44,44,45,45,46,46,47,47,48,48,49,49,50,50,51,51,52,52,53,53,54,54,55,55,56,56,57,57,58,58,59,59,60,60,61,61,62,62],"right_children":[2,4,6,8,10,12,14,16,18,20,22,24,26,28,30,32,34,36,38,40,42,44,46,48,50,52,54,56,58,60,62,-1,64,66,68,70,72,74,76,78,80,82,84,86,88,90,92,94,96,98,100,102,104,106,108,110,112,114,116,118,120,122,124,-1,-1,-1,-1,-1,-1,-1,-1,-1,-1,-1,-1,-1,-1,-1,-1,-1,-1,-1,-1,-1,-1,-1,-1,-1,-1,-1,-1,-1,-1,-1,-1,-1,-1,-1,-1,-1,-1,-1,-1,-1,-1,-1,-1,-1,-1,-1,-1,-1,-1,-1,-1,-1,-1,-1,-1,-1,-1,-1,-1,-1,-1],"split_conditions":[1.984E0,-5.18E-1,3.28E2,2.95E2,4.464E0,5.433155E1,3.65E2,1.23E2,3.33E2,3.3842106E1,6.667E0,2.1453987E1,2.41E2,3.49E2,3.04E-1,1.3833333E1,8E0,1.33E2,1.03E2,3.571E0,5E0,4.89E2,9.041184E1,2.7E1,2.5736841E1,5E0,4.252E0,6.113E0,5.189189E0,3.257143E1,3.78E2,-1.4926848E-1,2.5555555E1,8.711297E1,1.4E1,5.9444443E1,3E2,9.655173E1,5.1E1,1.96E2,2.38E2,3.19E0,6.5E1,9.1E1,1.95E2,2.9E1,7.8E1,4E0,5.9E1,5.778E0,2.03E2,2.22E2,2.33E2,1E0,2.64E2,2.94375E1,5E0,5.041237E0,6.518E0,7.493062E1,1.95E2,2.2333334E1,3.0714285E1,1.366674E-1,9.5855266E-2,5.0473124E-2,7.73494E-2,1.3112868E-2,-6.881554E-2,-2.1050652E-2,1.3568765E-1,-1.589599E-1,1.5628703E-1,-4.9766093E-2,1.3727707E-1,-1.7205479E-2,-1.21554926E-1,4.829577E-2,-6.4709038E-3,1.8181575E-2,-1.958707E-2,1.1780879E-2,-8.406614E-3,3.627002E-2,-4.903712E-2,-1.4233969E-2,-4.489114E-2,1.4149358E-2,6.4417176E-2,-1.6878253E-2,-5.9492793E-2,-5.158937E-2,-1.1023568E-1,5.4670293E-2,-9.661138E-2,-9.406168E-2,-3.0090655E-3,-7.286931E-2,-2.0112846E-2,8.496223E-2,-3.7123945E-2,-1.9195715E-3,6.421885E-2,-5.608336E-2,3.9647546E-2,-3.7891462E-3,-5.2119114E-2,4.0515717E-2,-2.3847356E-2,-1.0904213E-1,-7.6150015E-2,1.3201267E-1,-6.9210194E-2,-8.222277E-3,8.763443E-2,-6.639739E-2,1.0738001E-1,7.7064835E-2,-6.7591764E-2,-9.879119E-2,-1.5780202E-1,-5.994157E-2,-1.3844E-1,-1.342337E-1,-9.202803E-2],"split_indices":[14,14,11,11,10,22,11,11,11,21,10,23,11,11,17,24,7,15,6,10,7,3,22,12,21,7,10,10,25,21,11,0,21,22,12,24,11,22,12,11,11,10,21,15,6,3,6,19,15,18,11,11,11,7,11,23,7,25,10,22,6,24,24,0,0,0,0,0,0,0,0,0,0,0,0,0,0,0,0,0,0,0,0,0,0,0,0,0,0,0,0,0,0,0,0,0,0,0,0,0,0,0,0,0,0,0,0,0,0,0,0,0,0,0,0,0,0,0,0,0,0,0,0,0,0],"split_type":[0,0,0,0,0,0,0,0,0,0,0,0,0,0,0,0,0,0,0,0,0,0,0,0,0,0,0,0,0,0,0,0,0,0,0,0,0,0,0,0,0,0,0,0,0,0,0,0,0,0,0,0,0,0,0,0,0,0,0,0,0,0,0,0,0,0,0,0,0,0,0,0,0,0,0,0,0,0,0,0,0,0,0,0,0,0,0,0,0,0,0,0,0,0,0,0,0,0,0,0,0,0,0,0,0,0,0,0,0,0,0,0,0,0,0,0,0,0,0,0,0,0,0,0,0],"sum_hessian":[2.4507816E5,1.998954E5,4.5182742E4,2.7890574E4,1.7200483E5,3.6018465E4,9.164274E3,2.6129762E4,1.7608136E3,9.540209E4,7.6602734E4,6.8468643E3,2.9171602E4,6.3980967E3,2.766178E3,2.126237E3,2.4003523E4,1.1670134E3,5.938002E2,5.628139E4,3.9120707E4,7.147853E4,5.124204E3,2.1829973E3,4.6638667E3,5.644779E3,2.3526824E4,4.2009575E3,2.1971394E3,2.8380197E2,2.482376E3,1.1342519E1,2.1148945E3,2.3506422E4,4.9710248E2,1.0693455E3,9.766792E1,2.1078113E2,3.8301907E2,2.7072541E4,2.9208848E4,3.48947E4,4.22601E3,6.7416055E4,4.0624805E3,3.569742E3,1.5544625E3,5.643626E1,2.126561E3,3.0794524E3,1.5844143E3,3.4596636E3,2.185115E3,1.3945091E4,9.581732E3,3.9955576E3,2.0539992E2,1.4841683E3,7.1297095E2,1.4159259E2,1.4220938E2,9.305995E2,1.5517764E3,5.2073016E2,1.5941644E3,1.7376963E4,6.129458E3,1.800151E2,3.1708737E2,9.872961E2,8.204937E1,2.8122208E0,9.48557E1,1.8988585E2,2.0895279E1,9.1202446E1,2.9181662E2,2.5241973E4,1.8305687E3,2.7194361E4,2.0144858E3,9.630955E3,2.5263742E4,3.8644897E3,3.6151984E2,6.094527E4,6.4707847E3,2.224084E3,1.8383964E3,6.126204E2,2.9571213E3,4.4555957E2,1.108903E3,3.938415E1,1.7052107E1,2.053724E3,7.283697E1,2.681116E3,3.9833643E2,1.0435212E2,1.4800623E3,1.6694697E3,1.7901938E3,1.6604882E3,5.2462695E2,2.4165293E3,1.1528562E4,1.095051E3,8.486682E3,2.1602925E3,1.8352651E3,9.26745E1,1.1272542E2,1.2691125E3,2.150558E2,6.676329E2,4.5338066E1,7.086535E1,7.072724E1,8.088362E1,6.132576E1,2.4448036E1,9.061515E2,5.176947E2,1.0340817E3],"tree_param":{"num_deleted":"0","num_feature":"27","num_nodes":"125","size_leaf_vector":"1"}},{"base_weights":[-6.8045716E-4,4.435778E-1,-7.240357E-2,4.684056E-1,-6.755061E-1,2.3757427E-3,-4.1232792E-1,6.2072766E-1,3.1783205E-1,-1.4938632E0,-5.795092E-1,1.4399947E-1,-1.7786205E-1,-3.240279E-1,-7.323078E-1,-3.6566222E-1,6.564353E-1,1.8511198E-1,4.8643738E-1,-1.5732625E-1,1.00647226E-1,1.1159983E0,-6.7960054E-1,9.7966075E-2,3.895187E-1,-1.485795E-1,-6.0577154E-1,-5.135927E-1,-2.1593092E-1,-5.9563655E-1,-1.044899E0,5.2574885E-1,-6.6349226E-1,9.6294945E-1,6.139905E-1,1.2994799E-1,6.8872094E-1,3.8287863E-1,7.059822E-1,-1.3723756E-1,1.8060224E0,-3.284497E-1,-9.6488565E-1,2.3743607E-1,1.9990733E-2,4.5743412E-1,-2.4275939E-1,-1.6808632E-1,4.00906E-1,-2.9785556E-1,-7.380046E-1,-1.8126042E-1,-5.897213E-1,1.69197E-1,-2.8914344E-1,-8.3309E-1,-1.4329623E-1,-5.049638E-1,-1.1080439E0,6.712356E-2,-3.5866573E-2,-1.1376283E-1,-4.459408E-2,8.733617E-2,1.4170195E-1,3.7441548E-2,7.279106E-2,2.046427E-2,-1.3939989E-2,7.354825E-2,-3.8537122E-2,5.355767E-2,2.0417234E-2,7.89982E-2,2.3390934E-2,1.9586676E-1,-8.393471E-2,-5.4071206E-3,-1.2847681E-1,-6.1373293E-2,-1.2841116E-1,3.025701E-2,-1.1716058E-2,1.023159E-2,-6.4048464E-3,6.6381164E-2,3.0657822E-2,1.8831167E-2,-5.4393467E-2,-4.291094E-2,-1.4294991E-2,6.88832E-2,1.9653691E-2,-4.6809477E-5,-4.7278505E-2,-5.71794E-2,-1.0415808E-1,-5.221532E-2,7.9589095E-3,1.0802939E-2,-6.2278617E-2,-2.4353266E-2,5.0721418E-2,-4.2154517E-2,-1.0165373E-2,-8.737363E-2,3.3596305E-3,6.1711534E-3,-5.6756146E-2,4.708389E-2,-8.3756484E-2,-1.3120113E-1,-9.916129E-2],"categories":[],"categories_nodes":[],"categories_segments":[],"categories_sizes":[],"default_left":[0,0,0,0,0,0,0,0,0,0,0,0,0,1,0,0,0,0,0,0,0,0,0,0,0,0,0,0,0,0,0,0,0,0,0,0,0,0,0,0,0,0,0,0,0,0,0,0,0,0,0,0,0,0,0,0,0,0,0,0,0,0,0,0,0,0,0,0,0,0,0,0,0,0,0,0,0,0,0,0,0,0,0,0,0,0,0,0,0,0,0,0,0,0,0,0,0,0,0,0,0,0,0,0,0,0,0,0,0,0,0,0,0],"id":5,"left_children":[1,3,5,7,9,11,13,15,17,19,21,23,25,27,29,31,33,35,37,-1,-1,39,41,43,45,47,49,51,53,55,57,59,61,63,65,67,69,71,73,-1,75,77,79,81,83,85,87,89,91,93,95,97,99,101,103,105,107,109,111,-1,-1,-1,-1,-1,-1,-1,-1,-1,-1,-1,-1,-1,-1,-1,-1,-1,-1,-1,-1,-1,-1,-1,-1,-1,-1,-1,-1,-1,-1,-1,-1,-1,-1,-1,-1,-1,-1,-1,-1,-1,-1,-1,-1,-1,-1,-1,-1,-1,-1,-1,-1,-1,-1],"loss_changes":[7.772706E3,9.4243066E2,5.338791E3,7.606406E2,5.6982544E1,4.394509E3,1.0698174E3,5.810293E2,3.7325598E2,1.680545E1,1.1288023E2,1.0895535E3,9.491067E2,6.081428E2,3.4927197E2,1.534603E2,2.0644678E2,2.5930667E2,1.6679199E2,0E0,0E0,6.636391E1,6.2242035E1,8.8291046E2,6.5373535E2,7.600427E2,1.973175E2,2.725996E2,5.331115E2,6.122047E2,8.434082E1,1.8896538E1,4.412796E1,7.743103E1,3.813003E2,1.6936067E2,4.6570007E1,1.3619617E2,9.315808E1,0E0,1.3580841E1,7.377864E1,3.7777405E1,6.7243787E2,3.6028244E2,4.277312E2,1.9186429E2,4.4919397E2,1.4291391E2,7.591029E1,1.706222E2,1.7881049E2,2.0238843E2,4.2150964E2,3.943109E2,1.3171582E2,1.7082857E2,8.5611824E1,5.1624023E1,0E0,0E0,0E0,0E0,0E0,0E0,0E0,0E0,0E0,0E0,0E0,0E0,0E0,0E0,0E0,0E0,0E0,0E0,0E0,0E0,0E0,0E0,0E0,0E0,0E0,0E0,0E0,0E0,0E0,0E0,0E0,0E0,0E0,0E0,0E0,0E0,0E0,0E0,0E0,0E0,0E0,0E0,0E0,0E0,0E0,0E0,0E0,0E0,0E0,0E0,0E0,0E0,0E0,0E0],"parents":[2147483647,0,0,1,1,2,2,3,3,4,4,5,5,6,6,7,7,8,8,9,9,10,10,11,11,12,12,13,13,14,14,15,15,16,16,17,17,18,18,21,21,22,22,23,23,24,24,25,25,26,26,27,27,28,28,29,29,30,30,31,31,32,32,33,33,34,34,35,35,36,36,37,37,38,38,40,40,41,41,42,42,43,43,44,44,45,45,46,46,47,47,48,48,49,49,50,50,51,51,52,52,53,53,54,54,55,55,56,56,57,57,58,58],"right_children":[2,4,6,8,10,12,14,16,18,20,22,24,26,28,30,32,34,36,38,-1,-1,40,42,44,46,48,50,52,54,56,58,60,62,64,66,68,70,72,74,-1,76,78,80,82,84,86,88,90,92,94,96,98,100,102,104,106,108,110,112,-1,-1,-1,-1,-1,-1,-1,-1,-1,-1,-1,-1,-1,-1,-1,-1,-1,-1,-1,-1,-1,-1,-1,-1,-1,-1,-1,-1,-1,-1,-1,-1,-1,-1,-1,-1,-1,-1,-1,-1,-1,-1,-1,-1,-1,-1,-1,-1,-1,-1,-1,-1,-1,-1],"split_conditions":[0E0,3.35E2,2.424E0,3.273E0,3.37E2,4.452E0,3.28E2,3E0,8.178617E1,2.94E2,3.38E2,6E0,6.667E0,6.6666664E1,3.65E2,8E0,1.2E2,8.5E1,5.425532E0,-1.5732625E-1,1.00647226E-1,7.3E1,1.31E2,6.97076E1,3.4E1,5.19E2,6.1E1,2E0,2.41E2,3.49E2,3.04E-1,9E0,4.241E0,3E0,1.58E2,4.948E0,8.150008E1,2E0,2.9E2,-1.3723756E-1,6.06E2,3.72E2,7.45E0,2.13E2,3.709E0,3.556E0,5.71E-1,4.0145984E0,1.13E0,4E0,8.9828804E1,5.591398E1,3.3E1,2.23E2,4.241E0,6.113E0,5.189189E0,7.231638E1,3.78E2,6.712356E-2,-3.5866573E-2,-1.1376283E-1,-4.459408E-2,8.733617E-2,1.4170195E-1,3.7441548E-2,7.279106E-2,2.046427E-2,-1.3939989E-2,7.354825E-2,-3.8537122E-2,5.355767E-2,2.0417234E-2,7.89982E-2,2.3390934E-2,1.9586676E-1,-8.393471E-2,-5.4071206E-3,-1.2847681E-1,-6.1373293E-2,-1.2841116E-1,3.025701E-2,-1.1716058E-2,1.023159E-2,-6.4048464E-3,6.6381164E-2,3.0657822E-2,1.8831167E-2,-5.4393467E-2,-4.291094E-2,-1.4294991E-2,6.88832E-2,1.9653691E-2,-4.6809477E-5,-4.7278505E-2,-5.71794E-2,-1.0415808E-1,-5.221532E-2,7.9589095E-3,1.0802939E-2,-6.2278617E-2,-2.4353266E-2,5.0721418E-2,-4.2154517E-2,-1.0165373E-2,-8.737363E-2,3.3596305E-3,6.1711534E-3,-5.6756146E-2,4.708389E-2,-8.3756484E-2,-1.3120113E-1,-9.916129E-2],"split_indices":[14,11,14,13,11,10,11,9,22,6,11,7,10,22,11,12,11,15,25,0,0,22,6,22,12,3,3,7,11,11,17,7,10,7,11,13,22,7,11,0,3,11,10,11,10,10,17,25,14,19,22,22,12,11,10,10,25,22,11,0,0,0,0,0,0,0,0,0,0,0,0,0,0,0,0,0,0,0,0,0,0,0,0,0,0,0,0,0,0,0,0,0,0,0,0,0,0,0,0,0,0,0,0,0,0,0,0,0,0,0,0,0,0],"split_type":[0,0,0,0,0,0,0,0,0,0,0,0,0,0,0,0,0,0,0,0,0,0,0,0,0,0,0,0,0,0,0,0,0,0,0,0,0,0,0,0,0,0,0,0,0,0,0,0,0,0,0,0,0,0,0,0,0,0,0,0,0,0,0,0,0,0,0,0,0,0,0,0,0,0,0,0,0,0,0,0,0,0,0,0,0,0,0,0,0,0,0,0,0,0,0,0,0,0,0,0,0,0,0,0,0,0,0,0,0,0,0,0,0],"sum_hessian":[2.4393494E5,3.390704E4,2.1002789E5,3.317168E4,7.353597E2,1.721565E5,3.7871387E4,1.6488543E4,1.6683137E4,7.567572E1,6.5968396E2,9.6405266E4,7.575124E4,2.9682396E4,8.1889917E3,5.7571497E2,1.5912827E4,9.336151E3,7.346986E3,7.370594E1,1.9697824E0,3.6206734E1,6.2347723E2,8.118497E4,1.5220298E4,7.0900734E4,4.8505063E3,1.0777909E4,1.8904488E4,5.69982E3,2.489172E3,1.4398871E2,4.3172623E2,1.9328816E3,1.3979945E4,8.415588E3,9.2056323E2,4.9940493E3,2.3529368E3,7.6457276E0,2.8561007E1,2.804406E2,3.4303662E2,2.9111986E4,5.207298E4,1.3744252E4,1.4760463E3,6.847071E4,2.430026E3,1.4582048E3,3.3923015E3,2.0094078E3,8.768501E3,3.0194785E3,1.5885009E4,3.7371711E3,1.9626486E3,2.6156873E2,2.2276033E3,1.23855446E2,2.013326E1,1.3445753E2,2.972687E2,1.6168092E3,3.1607242E2,4.5066675E3,9.473278E3,6.5886772E3,1.8269106E3,8.8245984E2,3.8103382E1,2.6919111E3,2.302138E3,1.9969329E3,3.56004E2,2.724829E1,1.3127173E0,2.187386E2,6.1702023E1,1.647414E2,1.7829521E2,2.4594498E4,4.51749E3,2.630463E4,2.5768348E4,5.802617E3,7.941635E3,6.0725665E2,8.687896E2,6.013094E3,6.2457617E4,1.00780566E3,1.4222202E3,5.4043884E2,9.17766E2,2.1939678E3,1.1983336E3,8.7062476E2,1.1387831E3,3.966173E2,8.371884E3,1.3596196E3,1.6598589E3,9.309539E3,6.5754697E3,3.5697476E3,1.6742375E2,1.323823E3,6.388255E2,6.638608E1,1.9518265E2,8.057674E2,1.4218359E3],"tree_param":{"num_deleted":"0","num_feature":"27","num_nodes":"113","size_leaf_vector":"1"}},{"base_weights":[-4.052679E-4,7.337583E-2,-3.5515633E-1,8.6035347E-4,2.1797033E-1,-1.3035542E-1,-4.428202E-1,2.3610577E-1,-1.1898256E-1,5.1876605E-1,4.870867E-2,-3.082887E-3,-3.784243E-1,-3.421483E-1,-5.852722E-1,-8.527692E-4,3.680215E-1,-5.336847E-2,-3.7377542E-1,6.0596436E-1,3.6942044E-1,2.2298455E-1,-6.699586E-2,2.6155382E-1,-3.328715E-1,-2.601259E-1,-5.2604544E-1,-5.5669224E-1,-2.7993602E-1,-4.9362698E-1,-7.951544E-1,2.7425912E-1,-1.2174664E-1,4.7058728E-1,1.6309781E-1,-1.17433496E-1,1.1573006E-1,-5.705123E-1,-2.806086E-1,5.574922E-1,9.098074E-1,5.8032817E-1,6.6645555E-2,1.77551E-1,6.895646E-1,-4.7277084E-1,-1.4179463E-2,-3.0351052E-1,3.2494444E-1,5.8939E-1,-3.9776006E-1,-4.4411397E-1,-9.933903E-2,-5.7949346E-1,8.803819E-1,9.8412645E-1,-5.729026E-1,-2.3486224E-1,-5.2881235E-1,-7.517294E-1,-3.894984E-1,-8.139931E-1,1.0119561E0,-3.9187655E-2,3.2210164E-2,-6.1244033E-3,-6.811025E-2,6.1232246E-2,3.5628922E-2,4.3206654E-2,5.7170815E-3,-3.863409E-2,-7.358367E-3,3.6679775E-2,4.3152836E-3,-5.1188733E-2,-9.077495E-2,-1.4402474E-2,-4.5175623E-2,6.972212E-2,4.827669E-2,8.639554E-2,1.2750618E-1,-2.9835597E-2,6.391315E-2,-1.06747225E-1,1.4792782E-2,2.498164E-2,-1.2217805E-3,1.1106966E-1,6.0141273E-2,-5.0234925E-2,8.078831E-2,9.335219E-3,-1.9609073E-2,-4.3612238E-2,5.0086636E-2,3.5726074E-2,-4.7316663E-2,7.8723185E-2,-2.2946486E-2,-6.392575E-2,-3.055342E-2,-3.7834074E-2,-1.3035001E-1,-4.837061E-3,-1.0281898E-1,1.484476E-2,-6.1402943E-2,-4.8355352E-2,1.9071607E-1,-3.95417E-2,1.5130053E-1,-5.8888506E-2,5.6829788E-2,-2.7518222E-2,1.3180109E-2,-9.2681594E-2,-4.346773E-2,-5.2691948E-2,-8.6423546E-2,-2.3622576E-2,-4.752413E-2,2.930445E-2,-8.4323026E-2,1.4413173E-1,-1.0692036E-1],"categories":[],"categories_nodes":[],"categories_segments":[],"categories_sizes":[],"default_left":[0,0,0,0,0,0,0,0,0,0,0,0,0,1,0,0,1,0,0,1,0,0,0,1,0,0,1,0,0,1,0,0,0,0,0,0,0,0,1,0,0,0,0,0,1,0,0,0,0,0,0,0,0,1,0,1,0,0,0,0,0,0,0,0,0,0,0,0,0,0,0,0,0,0,0,0,0,0,0,0,0,0,0,0,0,0,0,0,0,0,0,0,0,0,0,0,0,0,0,0,0,0,0,0,0,0,0,0,0,0,0,0,0,0,0,0,0,0,0,0,0,0,0,0,0,0,0],"id":6,"left_children":[1,3,5,7,9,11,13,15,17,19,21,23,25,27,29,31,33,35,37,39,41,43,45,47,49,51,53,55,57,59,61,63,65,67,69,71,73,75,77,79,81,83,85,87,89,91,93,95,97,99,101,103,105,107,109,111,113,115,117,119,121,123,125,-1,-1,-1,-1,-1,-1,-1,-1,-1,-1,-1,-1,-1,-1,-1,-1,-1,-1,-1,-1,-1,-1,-1,-1,-1,-1,-1,-1,-1,-1,-1,-1,-1,-1,-1,-1,-1,-1,-1,-1,-1,-1,-1,-1,-1,-1,-1,-1,-1,-1,-1,-1,-1,-1,-1,-1,-1,-1,-1,-1,-1,-1,-1,-1],"loss_changes":[6.3643115E3,2.1105972E3,8.249595E2,3.7795056E3,3.422952E3,3.7087012E2,4.3172852E2,1.4143159E3,1.4847891E3,3.1504492E2,8.675626E2,6.7773517E2,6.9421875E1,2.3541821E2,2.3946436E2,5.382238E2,6.108176E2,7.6515125E2,3.332085E2,2.245835E2,5.700115E2,3.637895E2,5.5416113E2,1.5442352E2,2.071289E2,6.542714E1,1.3363559E2,9.9635254E1,1.5338196E2,2.3305835E2,1.2979688E2,1.5757117E2,3.804273E2,3.135708E2,2.76237E2,6.0396576E2,3.5360797E2,1.15075195E2,2.8850354E2,1.373125E2,3.408716E1,2.7205347E2,3.3813406E2,2.1455411E2,5.5869934E1,1.1321185E2,4.4758948E2,4.662959E1,1.0009448E2,3.7061928E1,7.175668E1,5.783008E1,5.592408E1,4.299884E1,9.228079E1,3.0996212E1,7.193787E1,1.713465E2,7.8182434E1,6.2645508E1,8.122003E1,1.2161914E2,3.686578E1,0E0,0E0,0E0,0E0,0E0,0E0,0E0,0E0,0E0,0E0,0E0,0E0,0E0,0E0,0E0,0E0,0E0,0E0,0E0,0E0,0E0,0E0,0E0,0E0,0E0,0E0,0E0,0E0,0E0,0E0,0E0,0E0,0E0,0E0,0E0,0E0,0E0,0E0,0E0,0E0,0E0,0E0,0E0,0E0,0E0,0E0,0E0,0E0,0E0,0E0,0E0,0E0,0E0,0E0,0E0,0E0,0E0,0E0,0E0,0E0,0E0,0E0,0E0,0E0],"parents":[2147483647,0,0,1,1,2,2,3,3,4,4,5,5,6,6,7,7,8,8,9,9,10,10,11,11,12,12,13,13,14,14,15,15,16,16,17,17,18,18,19,19,20,20,21,21,22,22,23,23,24,24,25,25,26,26,27,27,28,28,29,29,30,30,31,31,32,32,33,33,34,34,35,35,36,36,37,37,38,38,39,39,40,40,41,41,42,42,43,43,44,44,45,45,46,46,47,47,48,48,49,49,50,50,51,51,52,52,53,53,54,54,55,55,56,56,57,57,58,58,59,59,60,60,61,61,62,62],"right_children":[2,4,6,8,10,12,14,16,18,20,22,24,26,28,30,32,34,36,38,40,42,44,46,48,50,52,54,56,58,60,62,64,66,68,70,72,74,76,78,80,82,84,86,88,90,92,94,96,98,100,102,104,106,108,110,112,114,116,118,120,122,124,126,-1,-1,-1,-1,-1,-1,-1,-1,-1,-1,-1,-1,-1,-1,-1,-1,-1,-1,-1,-1,-1,-1,-1,-1,-1,-1,-1,-1,-1,-1,-1,-1,-1,-1,-1,-1,-1,-1,-1,-1,-1,-1,-1,-1,-1,-1,-1,-1,-1,-1,-1,-1,-1,-1,-1,-1,-1,-1,-1,-1,-1,-1,-1,-1],"split_conditions":[6.257E0,2.31E-1,4.33E-1,3.787E0,3.977E0,1.55E2,8.028E0,2E0,5.568E0,3E0,5.36E-1,9.449E0,8.263473E1,6.373468E1,5.189189E0,2.7607143E1,3.36E1,5E0,3.21E-1,8.8518234E1,2.917E0,5.39E2,5.5384617E1,1.36E1,1.9E1,7.360406E1,6.225E1,3.4E1,4.886E1,2.301266E1,7.45E0,3.3333332E1,7.475E1,3.171E0,2.45E1,4.1462264E0,1.58E2,7.091E0,3.8333332E1,4.4855843E0,1.0567376E2,3.06E2,4.9358974E1,1.93E2,1.9767443E1,6.5E1,5.423E0,5.83E2,6.75E0,8E0,6.80203E1,7.2668396E1,5.431818E1,3.8650308E0,4.923E0,3.8095238E1,1.04E2,4.4426968E1,3.355E0,5.17E-1,5.17E-1,3.1E1,3.5375E1,-3.9187655E-2,3.2210164E-2,-6.1244033E-3,-6.811025E-2,6.1232246E-2,3.5628922E-2,4.3206654E-2,5.7170815E-3,-3.863409E-2,-7.358367E-3,3.6679775E-2,4.3152836E-3,-5.1188733E-2,-9.077495E-2,-1.4402474E-2,-4.5175623E-2,6.972212E-2,4.827669E-2,8.639554E-2,1.2750618E-1,-2.9835597E-2,6.391315E-2,-1.06747225E-1,1.4792782E-2,2.498164E-2,-1.2217805E-3,1.1106966E-1,6.0141273E-2,-5.0234925E-2,8.078831E-2,9.335219E-3,-1.9609073E-2,-4.3612238E-2,5.0086636E-2,3.5726074E-2,-4.7316663E-2,7.8723185E-2,-2.2946486E-2,-6.392575E-2,-3.055342E-2,-3.7834074E-2,-1.3035001E-1,-4.837061E-3,-1.0281898E-1,1.484476E-2,-6.1402943E-2,-4.8355352E-2,1.9071607E-1,-3.95417E-2,1.5130053E-1,-5.8888506E-2,5.6829788E-2,-2.7518222E-2,1.3180109E-2,-9.2681594E-2,-4.346773E-2,-5.2691948E-2,-8.6423546E-2,-2.3622576E-2,-4.752413E-2,2.930445E-2,-8.4323026E-2,1.4413173E-1,-1.0692036E-1],"split_indices":[13,13,17,10,13,12,13,7,10,7,17,13,22,22,25,21,21,7,17,22,13,3,22,21,12,22,21,12,21,23,10,22,24,10,23,25,6,10,21,25,22,3,22,12,23,21,13,3,10,7,22,22,21,25,10,22,16,21,10,17,17,12,21,0,0,0,0,0,0,0,0,0,0,0,0,0,0,0,0,0,0,0,0,0,0,0,0,0,0,0,0,0,0,0,0,0,0,0,0,0,0,0,0,0,0,0,0,0,0,0,0,0,0,0,0,0,0,0,0,0,0,0,0,0,0,0,0],"split_type":[0,0,0,0,0,0,0,0,0,0,0,0,0,0,0,0,0,0,0,0,0,0,0,0,0,0,0,0,0,0,0,0,0,0,0,0,0,0,0,0,0,0,0,0,0,0,0,0,0,0,0,0,0,0,0,0,0,0,0,0,0,0,0,0,0,0,0,0,0,0,0,0,0,0,0,0,0,0,0,0,0,0,0,0,0,0,0,0,0,0,0,0,0,0,0,0,0,0,0,0,0,0,0,0,0,0,0,0,0,0,0,0,0,0,0,0,0,0,0,0,0,0,0,0,0,0,0],"sum_hessian":[2.4315269E5,2.0128934E5,4.1863348E4,1.3405869E5,6.723066E4,1.1745711E4,3.0117637E4,4.5244707E4,8.8813984E4,2.4208158E4,4.30225E4,7.763589E3,3.9821223E3,1.7648623E4,1.2469013E4,1.6180633E4,2.9064074E4,7.06273E4,1.8186686E4,1.5282259E4,8.925899E3,1.7165955E4,2.5856545E4,4.3073726E3,3.4562163E3,2.2121477E3,1.7699745E3,3.9654639E3,1.3683159E4,8.681557E3,3.7874565E3,4.9392866E3,1.1241347E4,1.9368637E4,9.6954375E3,5.1221656E4,1.9405639E4,5.843038E3,1.2343647E4,1.3182142E4,2.1001172E3,5.260565E3,3.665335E3,1.564399E4,1.5219641E3,2.9770066E3,2.2879537E4,4.340913E2,3.8732815E3,2.26657E2,3.2295593E3,1.0308202E3,1.1813275E3,1.7057397E3,6.423469E1,4.0663197E1,3.9248005E3,1.1586654E4,2.0965046E3,2.493851E3,6.1877056E3,3.7489243E3,3.8532146E1,3.304915E2,4.608795E3,1.0145112E4,1.0962343E3,8.644579E3,1.0724057E4,2.7385813E3,6.9568564E3,7.1803877E3,4.404127E4,4.350797E3,1.5054843E4,4.9798613E3,8.631767E2,6.8660537E3,5.4775938E3,4.590334E3,8.591808E3,1.8688743E3,2.312429E2,3.297102E2,4.9308545E3,2.4431506E2,3.42102E3,1.1329365E4,4.314625E3,2.6142883E2,1.2605353E3,2.9103948E3,6.661169E1,1.4379811E4,8.499728E3,3.7304745E2,6.1043858E1,3.7230825E3,1.5019893E2,1.8258228E2,4.4074715E1,8.908635E2,2.3386958E3,9.58873E2,7.194726E1,1.1208743E3,6.045317E1,7.711118E1,1.6286287E3,2.7815138E1,3.6419548E1,1.1338878E1,2.9324318E1,3.8710706E3,5.3730175E1,1.0438985E4,1.1476693E3,3.9932214E2,1.6971825E3,8.336774E2,1.6601738E3,2.2210842E3,3.966621E3,9.623034E1,3.652694E3,3.219706E1,6.335086E0],"tree_param":{"num_deleted":"0","num_feature":"27","num_nodes":"127","size_leaf_vector":"1"}},{"base_weights":[-1.5025993E-3,6.4314224E-2,-3.2007274E-1,2.58464E-1,-7.627861E-2,-7.6273984E-1,8.8905823E-1,-2.0376574E-2,7.129964E-1,2.08384E-1,-5.6045884E-1,-1.7417888E-1,-9.191842E-1,9.830672E-2,1.1048387E0,-4.592777E-1,3.3867297E-1,8.087534E-1,1.4812699E-1,3.3153602E-1,-4.59358E-1,-4.4562733E-1,-1.0684593E0,6.4721954E-1,-7.7141E-1,-6.614309E-1,-1.2038478E0,-8.4803444E-1,8.7907195E-1,5.6497645E-1,1.4123894E0,-3.4002972E-1,-9.9040943E-1,8.8086325E-1,-2.2282824E-1,4.3925747E-1,1.1502037E0,3.186272E-1,-4.7739878E-1,5.7407364E-2,5.688034E-1,-1.0182945E0,5.1556647E-1,-6.6742414E-1,-2.5747392E-1,-1.2221016E0,9.702256E-2,8.6791515E-1,-2.6906136E-1,7.385313E-1,-9.551241E-1,7.471043E-2,-8.392585E-1,-1.0661412E0,-1.3643718E0,-1.1714294E0,-2.815375E-1,5.027827E-2,1.2688856E0,-8.5575813E-1,8.792888E-1,1.2698034E0,1.7179707E0,-6.3456684E-2,-1.5183248E-2,-5.4799724E-2,-1.1354178E-1,1.1404107E-1,5.0427664E-2,-1.1052951E-5,-6.30015E-2,4.6575285E-2,-1.2170124E-1,1.3008478E-1,6.639072E-2,5.2852698E-2,-2.0976488E-2,3.916495E-2,-5.880123E-2,6.469456E-2,-3.5868585E-3,1.1493112E-1,4.0754635E-2,-1.1593262E-1,-3.2340843E-2,7.967408E-2,-1.9217309E-3,-7.297396E-2,-3.5225227E-3,-3.8669568E-2,-4.5731803E-3,-1.356744E-1,-9.053251E-2,-5.9746742E-2,1.2030456E-1,6.715862E-2,1.5397839E-1,5.1804435E-2,-8.060823E-2,1.3104706E-1,-4.037814E-2,-4.0841337E-2,-1.18760005E-1,-2.5166282E-2,5.050535E-2,-1.1292312E-1,-6.977762E-2,-5.1114272E-2,-1.19400315E-1,-1.3707986E-1,-1.1156096E-1,-3.7440047E-2,-1.2992048E-1,-1.19638756E-1,5.301611E-3,-2.8283162E-2,1.2815695E-1,7.342917E-2,1.5059128E-1,-5.6977794E-3,-1.0671991E-1,1.0877825E-1,-4.7902763E-3,5.6120582E-2,1.467723E-1,1.7222542E-1,7.547413E-2],"categories":[],"categories_nodes":[],"categories_segments":[],"categories_sizes":[],"default_left":[0,0,0,0,0,0,0,0,0,0,0,0,0,0,0,0,0,0,0,0,0,0,0,0,0,0,0,0,0,0,0,0,0,0,0,0,0,0,1,0,0,0,1,0,0,0,0,0,0,0,0,0,0,0,1,0,0,0,0,0,0,0,0,0,0,0,0,0,0,0,0,0,0,0,0,0,0,0,0,0,0,0,0,0,0,0,0,0,0,0,0,0,0,0,0,0,0,0,0,0,0,0,0,0,0,0,0,0,0,0,0,0,0,0,0,0,0,0,0,0,0,0,0,0,0,0,0],"id":7,"left_children":[1,3,5,7,9,11,13,15,17,19,21,23,25,27,29,31,33,35,37,39,41,43,45,47,49,51,53,55,57,59,61,63,65,67,69,71,73,75,77,79,81,83,85,87,89,91,93,95,97,99,101,103,105,107,109,111,113,115,117,119,121,123,125,-1,-1,-1,-1,-1,-1,-1,-1,-1,-1,-1,-1,-1,-1,-1,-1,-1,-1,-1,-1,-1,-1,-1,-1,-1,-1,-1,-1,-1,-1,-1,-1,-1,-1,-1,-1,-1,-1,-1,-1,-1,-1,-1,-1,-1,-1,-1,-1,-1,-1,-1,-1,-1,-1,-1,-1,-1,-1,-1,-1,-1,-1,-1,-1],"loss_changes":[5.0789487E3,5.479866E3,2.2200559E4,1.0686686E4,1.604862E4,2.7954434E3,1.8965576E3,8.235669E3,1.7339688E3,6.030205E3,2.5144072E3,3.128775E3,1.7591055E3,1.7622802E3,1.449126E3,1.4890547E3,8.751472E3,3.4579238E3,4.9588977E2,4.0267476E3,6.222718E3,1.4673159E3,1.4232998E3,5.4322437E2,1.0250588E3,1.6481777E3,2.5046875E2,1.9721259E2,4.2213635E2,1.4167751E3,2.4019238E2,1.0644846E3,2.759497E2,1.4288438E3,1.2806956E3,5.7837915E2,1.0427734E3,4.0528278E2,9.597307E1,1.5796138E3,3.1061484E3,7.109126E2,6.257777E2,6.357739E2,5.205908E2,2.9827637E2,7.1247845E2,2.8443787E2,2.2105144E2,2.625951E2,4.179956E2,3.4430823E2,4.152378E2,4.3502295E2,6.8789062E0,6.938678E1,1.2039999E2,1.7224702E2,1.1151013E2,9.7045105E1,5.0209656E2,5.316465E2,5.991211E0,0E0,0E0,0E0,0E0,0E0,0E0,0E0,0E0,0E0,0E0,0E0,0E0,0E0,0E0,0E0,0E0,0E0,0E0,0E0,0E0,0E0,0E0,0E0,0E0,0E0,0E0,0E0,0E0,0E0,0E0,0E0,0E0,0E0,0E0,0E0,0E0,0E0,0E0,0E0,0E0,0E0,0E0,0E0,0E0,0E0,0E0,0E0,0E0,0E0,0E0,0E0,0E0,0E0,0E0,0E0,0E0,0E0,0E0,0E0,0E0,0E0,0E0,0E0,0E0],"parents":[2147483647,0,0,1,1,2,2,3,3,4,4,5,5,6,6,7,7,8,8,9,9,10,10,11,11,12,12,13,13,14,14,15,15,16,16,17,17,18,18,19,19,20,20,21,21,22,22,23,23,24,24,25,25,26,26,27,27,28,28,29,29,30,30,31,31,32,32,33,33,34,34,35,35,36,36,37,37,38,38,39,39,40,40,41,41,42,42,43,43,44,44,45,45,46,46,47,47,48,48,49,49,50,50,51,51,52,52,53,53,54,54,55,55,56,56,57,57,58,58,59,59,60,60,61,61,62,62],"right_children":[2,4,6,8,10,12,14,16,18,20,22,24,26,28,30,32,34,36,38,40,42,44,46,48,50,52,54,56,58,60,62,64,66,68,70,72,74,76,78,80,82,84,86,88,90,92,94,96,98,100,102,104,106,108,110,112,114,116,118,120,122,124,126,-1,-1,-1,-1,-1,-1,-1,-1,-1,-1,-1,-1,-1,-1,-1,-1,-1,-1,-1,-1,-1,-1,-1,-1,-1,-1,-1,-1,-1,-1,-1,-1,-1,-1,-1,-1,-1,-1,-1,-1,-1,-1,-1,-1,-1,-1,-1,-1,-1,-1,-1,-1,-1,-1,-1,-1,-1,-1,-1,-1,-1,-1,-1,-1],"split_conditions":[6.257E0,1E0,1E0,4.667E0,4.677E0,9.7E1,9.4E1,2.31E-1,1.89E2,1E0,2.31E-1,6E0,4E0,6E0,3E0,6E0,4.684E0,2.31E-1,2E0,3E0,5.044E0,4.29E-1,2.2E2,1.0421E1,2.5E1,1.7E2,6E0,5E0,4.5E1,1.84E2,6E0,3.483E0,4.35E-1,3.913E0,2.55E2,1E1,4.971E0,2.47E2,3.8823528E0,5.7317074E1,3.231E0,2.22E2,8E1,7E0,3E0,1.47E2,1E0,5.545E0,4.8E1,8E0,7E0,4.7E1,3.922E0,1.28E2,6.482972E0,4.296E0,4.4E1,9E0,7E0,4.5E0,5.5E1,1.35E2,6.857E0,-6.3456684E-2,-1.5183248E-2,-5.4799724E-2,-1.1354178E-1,1.1404107E-1,5.0427664E-2,-1.1052951E-5,-6.30015E-2,4.6575285E-2,-1.2170124E-1,1.3008478E-1,6.639072E-2,5.2852698E-2,-2.0976488E-2,3.916495E-2,-5.880123E-2,6.469456E-2,-3.5868585E-3,1.1493112E-1,4.0754635E-2,-1.1593262E-1,-3.2340843E-2,7.967408E-2,-1.9217309E-3,-7.297396E-2,-3.5225227E-3,-3.8669568E-2,-4.5731803E-3,-1.356744E-1,-9.053251E-2,-5.9746742E-2,1.2030456E-1,6.715862E-2,1.5397839E-1,5.1804435E-2,-8.060823E-2,1.3104706E-1,-4.037814E-2,-4.0841337E-2,-1.18760005E-1,-2.5166282E-2,5.050535E-2,-1.1292312E-1,-6.977762E-2,-5.1114272E-2,-1.19400315E-1,-1.3707986E-1,-1.1156096E-1,-3.7440047E-2,-1.2992048E-1,-1.19638756E-1,5.301611E-3,-2.8283162E-2,1.2815695E-1,7.342917E-2,1.5059128E-1,-5.6977794E-3,-1.0671991E-1,1.0877825E-1,-4.7902763E-3,5.6120582E-2,1.467723E-1,1.7222542E-1,7.547413E-2],"split_indices":[13,26,26,10,10,12,12,13,12,5,13,7,7,7,7,7,13,13,7,7,13,17,12,13,12,12,7,7,12,12,7,10,17,13,11,12,13,12,25,22,10,11,22,7,7,12,7,10,12,7,7,15,10,12,25,10,12,7,7,18,15,12,10,0,0,0,0,0,0,0,0,0,0,0,0,0,0,0,0,0,0,0,0,0,0,0,0,0,0,0,0,0,0,0,0,0,0,0,0,0,0,0,0,0,0,0,0,0,0,0,0,0,0,0,0,0,0,0,0,0,0,0,0,0,0,0,0],"split_type":[0,0,0,0,0,0,0,0,0,0,0,0,0,0,0,0,0,0,0,0,0,0,0,0,0,0,0,0,0,0,0,0,0,0,0,0,0,0,0,0,0,0,0,0,0,0,0,0,0,0,0,0,0,0,0,0,0,0,0,0,0,0,0,0,0,0,0,0,0,0,0,0,0,0,0,0,0,0,0,0,0,0,0,0,0,0,0,0,0,0,0,0,0,0,0,0,0,0,0,0,0,0,0,0,0,0,0,0,0,0,0,0,0,0,0,0,0,0,0,0,0,0,0,0,0,0,0],"sum_hessian":[2.4223019E5,2.0075488E5,4.1475305E4,8.431725E4,1.16437625E5,3.0360564E4,1.111474E4,5.2259023E4,3.2058229E4,7.332717E4,4.3110453E4,6.375887E3,2.3984676E4,2.383092E3,8.731647E3,2.3514584E4,2.874444E4,2.741106E4,4.647168E3,6.1909645E4,1.1417525E4,3.516371E4,7.9467417E3,2.6841597E3,3.6917275E3,1.2589043E4,1.1395634E4,1.0772748E3,1.3058174E3,3.1699968E3,5.5616514E3,1.9204494E4,4.310091E3,1.4623396E4,1.4121044E4,1.3165969E4,1.4245091E4,3.6521802E3,9.94988E2,2.872419E4,3.3185457E4,7.256969E3,4.160556E3,1.6137795E4,1.9025916E4,7.021118E3,9.256234E2,2.1631868E3,5.2097284E2,4.001213E2,3.2916062E3,2.4495168E3,1.0139526E4,6.137866E3,5.2577676E3,6.851034E2,3.921714E2,4.1807196E2,8.8774536E2,5.7394855E2,2.596048E3,3.7957078E3,1.7659435E3,7.486076E3,1.1718418E4,1.0651522E3,3.2449385E3,8.655741E3,5.967655E3,9.128859E3,4.9921846E3,1.2959376E4,2.0659247E2,1.0874678E4,3.370413E3,2.6138484E3,1.0383318E3,1.1205709E2,8.8293085E2,3.923062E3,2.4801127E4,7.2130728E3,2.5972385E4,6.0320557E3,1.2249137E3,2.7265325E3,1.4340239E3,1.46896875E4,1.4481073E3,1.1814778E4,7.2111377E3,4.9246616E3,2.0964563E3,5.688764E2,3.56747E2,1.6755642E3,4.8762262E2,2.1130325E2,3.0966956E2,2.6652762E2,1.3359367E2,9.8289667E2,2.3087095E3,1.3932716E3,1.0562454E3,3.322654E3,6.816872E3,1.1502172E3,4.987649E3,5.1209565E3,1.3681076E2,9.5200264E1,5.8990314E2,1.0432218E2,2.878492E2,3.2965765E2,8.8414314E1,2.739571E2,6.1378827E2,1.2039409E2,4.5355444E2,2.1193137E3,4.767345E2,8.2955273E2,2.966155E3,1.7573407E3,8.602776E0],"tree_param":{"num_deleted":"0","num_feature":"27","num_nodes":"127","size_leaf_vector":"1"}},{"base_weights":[-1.4840794E-3,5.9689976E-2,-2.9952136E-1,2.405841E-1,-7.065957E-2,-7.1104354E-1,8.1244045E-1,-1.2882523E-1,5.199008E-1,4.486349E-2,-6.6350937E-1,-2.4217007E-1,-8.895471E-1,3.420797E-1,1.1051154E0,1.4088823E-1,-4.2311046E-1,8.881886E-1,-5.4487444E-2,-1.7608252E-1,3.6884233E-1,-1.1132963E0,-9.205097E-3,3.821557E-2,-7.983215E-1,-6.786396E-1,-1.1316006E0,-3.4208E-1,7.070013E-1,2.9597846E-1,1.2281158E0,4.7701616E-2,6.363583E-1,-1.6319706E-1,-7.789061E-1,9.655547E-1,-7.11365E-2,-2.443349E-1,5.4581285E-1,-2.826342E-1,3.287802E-1,3.3316107E-3,6.260373E-1,-1.337915E0,-8.9722943E-1,3.1152445E-1,-6.662142E-1,5.579508E-1,-4.8340145E-1,2.0310213E-1,-1.0347933E0,-8.1486547E-1,-5.31332E-2,2.3397523E-1,-1.1637561E0,-7.8722455E-2,-1.1813953E0,-4.4140357E-1,8.9041513E-1,-7.678119E-1,9.1980755E-1,9.052063E-1,1.41474E0,2.6970837E-2,-3.7559625E-2,1.1773651E-1,5.0827593E-2,-5.7222404E-2,-1.7737584E-3,-6.3459516E-2,-1.0744985E-1,1.2521872E-1,6.140354E-2,7.15471E-2,-6.95923E-2,-8.004822E-3,-7.343635E-2,3.2501306E-2,1.2731002E-1,-1.5316362E-2,-6.4239256E-2,8.689117E-2,8.374848E-3,1.9935861E-2,-3.151093E-2,5.156477E-2,9.7735025E-2,-1.3947138E-1,-5.5234063E-2,-3.710773E-2,-1.1251911E-1,7.812236E-2,-7.6346556E-3,-8.565288E-2,1.0850942E-1,9.294828E-2,-2.068013E-3,-1.5372652E-2,-8.154278E-2,5.5139054E-2,-1.0106259E-1,-8.300378E-2,-1.22769654E-1,-7.0001684E-2,-1.118929E-1,2.115534E-2,-7.452171E-2,1.0228487E-1,-7.0058644E-2,-8.405983E-2,-1.21413305E-1,2.721223E-2,-8.24504E-2,-8.572314E-2,-1.447293E-1,-8.17635E-2,9.901153E-2,5.792143E-2,1.4770064E-1,1.57978E-1,-8.451142E-2,3.245891E-2,1.3561884E-1,-1.1158551E-2,1.0418657E-1,1.2591027E-1,1.5968895E-1],"categories":[],"categories_nodes":[],"categories_segments":[],"categories_sizes":[],"default_left":[0,0,0,0,0,0,0,0,0,0,0,0,0,0,0,0,0,0,0,0,0,0,0,0,0,0,0,0,0,0,0,0,1,1,0,0,0,0,0,0,0,0,0,0,1,1,0,0,0,0,0,0,0,0,0,0,0,0,0,0,0,0,0,0,0,0,0,0,0,0,0,0,0,0,0,0,0,0,0,0,0,0,0,0,0,0,0,0,0,0,0,0,0,0,0,0,0,0,0,0,0,0,0,0,0,0,0,0,0,0,0,0,0,0,0,0,0,0,0,0,0,0,0,0,0,0,0],"id":8,"left_children":[1,3,5,7,9,11,13,15,17,19,21,23,25,27,29,31,33,35,37,39,41,43,45,47,49,51,53,55,57,59,61,63,65,67,69,71,73,75,77,79,81,83,85,87,89,91,93,95,97,99,101,103,105,107,109,111,113,115,117,119,121,123,125,-1,-1,-1,-1,-1,-1,-1,-1,-1,-1,-1,-1,-1,-1,-1,-1,-1,-1,-1,-1,-1,-1,-1,-1,-1,-1,-1,-1,-1,-1,-1,-1,-1,-1,-1,-1,-1,-1,-1,-1,-1,-1,-1,-1,-1,-1,-1,-1,-1,-1,-1,-1,-1,-1,-1,-1,-1,-1,-1,-1,-1,-1,-1,-1],"loss_changes":[4.3584697E3,4.6768374E3,1.8629875E4,8.571072E3,7.8951167E3,2.4867852E3,1.5135449E3,2.8389155E3,1.0006222E4,6.906173E3,5.532708E3,1.2778939E3,1.0979023E3,1.0537405E3,6.742783E2,8.6165967E2,1.5816035E3,2.1391934E3,2.106314E3,3.0857612E3,3.6774448E3,5.395039E2,1.6142736E3,1.477518E3,6.506549E2,9.80124E2,4.4021973E2,3.2449884E2,5.800936E2,5.951795E2,3.5329785E2,1.4764114E3,2.0411743E2,5.8812585E2,3.0730518E2,2.686504E3,1.0580421E3,1.1303293E3,7.126913E2,2.2060786E3,1.3229954E3,1.00870044E3,8.8997266E2,2.4287012E2,6.8105566E2,9.3788965E2,8.3849097E2,5.8689386E2,2.9762207E2,2.2271445E2,8.675244E1,3.2907324E2,3.7719354E2,1.7126317E2,1.5833789E2,2.9296826E2,2.8983673E1,2.053038E2,4.3241956E2,6.1526093E1,1.4634558E2,2.999557E2,1.0364795E2,0E0,0E0,0E0,0E0,0E0,0E0,0E0,0E0,0E0,0E0,0E0,0E0,0E0,0E0,0E0,0E0,0E0,0E0,0E0,0E0,0E0,0E0,0E0,0E0,0E0,0E0,0E0,0E0,0E0,0E0,0E0,0E0,0E0,0E0,0E0,0E0,0E0,0E0,0E0,0E0,0E0,0E0,0E0,0E0,0E0,0E0,0E0,0E0,0E0,0E0,0E0,0E0,0E0,0E0,0E0,0E0,0E0,0E0,0E0,0E0,0E0,0E0,0E0,0E0],"parents":[2147483647,0,0,1,1,2,2,3,3,4,4,5,5,6,6,7,7,8,8,9,9,10,10,11,11,12,12,13,13,14,14,15,15,16,16,17,17,18,18,19,19,20,20,21,21,22,22,23,23,24,24,25,25,26,26,27,27,28,28,29,29,30,30,31,31,32,32,33,33,34,34,35,35,36,36,37,37,38,38,39,39,40,40,41,41,42,42,43,43,44,44,45,45,46,46,47,47,48,48,49,49,50,50,51,51,52,52,53,53,54,54,55,55,56,56,57,57,58,58,59,59,60,60,61,61,62,62],"right_children":[2,4,6,8,10,12,14,16,18,20,22,24,26,28,30,32,34,36,38,40,42,44,46,48,50,52,54,56,58,60,62,64,66,68,70,72,74,76,78,80,82,84,86,88,90,92,94,96,98,100,102,104,106,108,110,112,114,116,118,120,122,124,126,-1,-1,-1,-1,-1,-1,-1,-1,-1,-1,-1,-1,-1,-1,-1,-1,-1,-1,-1,-1,-1,-1,-1,-1,-1,-1,-1,-1,-1,-1,-1,-1,-1,-1,-1,-1,-1,-1,-1,-1,-1,-1,-1,-1,-1,-1,-1,-1,-1,-1,-1,-1,-1,-1,-1,-1,-1,-1,-1,-1,-1,-1,-1,-1],"split_conditions":[6.234E0,1E0,1E0,1E0,2.31E-1,4.33E-1,4.44E-1,5.67E-1,4.948E0,6E-1,4.826E0,9.559E0,7.727E0,7.395E0,9.4E1,2.25E2,3E0,6E0,1.12E2,6E0,2E0,3.609E0,9.7E1,1.42E2,3.9E1,1.38E2,3.3E1,7.4E1,4.4E1,6E0,3E0,4E0,4.39557E0,6.615385E1,6E0,1.24E2,3.3E1,3E0,1.78E2,1.74E2,1.76E2,2.8E1,6E0,6E0,7.033898E1,7.524398E1,6E0,5E0,7.358E0,8E0,6E0,4E0,6E0,8E0,8.7E1,1.62E2,3.05E2,8E0,1.0087E1,2.05E2,5.8E1,1.96E2,8.2E0,2.6970837E-2,-3.7559625E-2,1.1773651E-1,5.0827593E-2,-5.7222404E-2,-1.7737584E-3,-6.3459516E-2,-1.0744985E-1,1.2521872E-1,6.140354E-2,7.15471E-2,-6.95923E-2,-8.004822E-3,-7.343635E-2,3.2501306E-2,1.2731002E-1,-1.5316362E-2,-6.4239256E-2,8.689117E-2,8.374848E-3,1.9935861E-2,-3.151093E-2,5.156477E-2,9.7735025E-2,-1.3947138E-1,-5.5234063E-2,-3.710773E-2,-1.1251911E-1,7.812236E-2,-7.6346556E-3,-8.565288E-2,1.0850942E-1,9.294828E-2,-2.068013E-3,-1.5372652E-2,-8.154278E-2,5.5139054E-2,-1.0106259E-1,-8.300378E-2,-1.22769654E-1,-7.0001684E-2,-1.118929E-1,2.115534E-2,-7.452171E-2,1.0228487E-1,-7.0058644E-2,-8.405983E-2,-1.21413305E-1,2.721223E-2,-8.24504E-2,-8.572314E-2,-1.447293E-1,-8.17635E-2,9.901153E-2,5.792143E-2,1.4770064E-1,1.57978E-1,-8.451142E-2,3.245891E-2,1.3561884E-1,-1.1158551E-2,1.0418657E-1,1.2591027E-1,1.5968895E-1],"split_indices":[13,26,26,5,13,17,17,17,13,17,13,13,13,13,12,6,7,7,6,7,7,13,6,12,12,6,12,15,12,7,7,7,25,22,7,12,12,7,6,6,6,6,7,7,22,22,7,7,13,7,7,7,7,7,12,6,11,7,13,11,12,12,13,0,0,0,0,0,0,0,0,0,0,0,0,0,0,0,0,0,0,0,0,0,0,0,0,0,0,0,0,0,0,0,0,0,0,0,0,0,0,0,0,0,0,0,0,0,0,0,0,0,0,0,0,0,0,0,0,0,0,0,0,0,0,0,0],"split_type":[0,0,0,0,0,0,0,0,0,0,0,0,0,0,0,0,0,0,0,0,0,0,0,0,0,0,0,0,0,0,0,0,0,0,0,0,0,0,0,0,0,0,0,0,0,0,0,0,0,0,0,0,0,0,0,0,0,0,0,0,0,0,0,0,0,0,0,0,0,0,0,0,0,0,0,0,0,0,0,0,0,0,0,0,0,0,0,0,0,0,0,0,0,0,0,0,0,0,0,0,0,0,0,0,0,0,0,0,0,0,0,0,0,0,0,0,0,0,0,0,0,0,0,0,0,0,0],"sum_hessian":[2.390521E5,1.9834194E5,4.071015E4,8.3065695E4,1.1527624E5,2.9713822E4,1.0996327E4,3.5765156E4,4.730054E4,9.64775E4,1.879874E4,8.193747E3,2.1520074E4,4.2186543E3,6.7776724E3,1.8661941E4,1.7103215E4,2.8820678E4,1.8479861E4,5.7359867E4,3.9117637E4,1.1140055E4,7.658685E3,5.448034E3,2.7457134E3,1.1501939E4,1.0018135E4,1.4674755E3,2.7511787E3,8.947992E2,5.8828735E3,1.5708607E4,2.9533342E3,9.884163E3,7.2190522E3,2.6669842E4,2.1508345E3,1.40401875E4,4.439675E3,4.7364082E4,9.995787E3,1.6157102E4,2.2960533E4,5.459392E3,5.6806626E3,5.1467446E3,2.5119402E3,2.7289045E3,2.7191294E3,5.2453296E2,2.2211804E3,9.444719E3,2.0572207E3,2.3032774E2,9.787808E3,1.1178226E3,3.4965286E2,3.7868982E2,2.372489E3,3.3067752E2,5.6412164E2,2.1568313E3,3.726042E3,1.0304549E4,5.404058E3,5.637826E2,2.3895518E3,2.5921614E3,7.292001E3,4.852946E3,2.3661062E3,1.4689397E4,1.1980445E4,9.520528E2,1.1987816E3,1.0515822E4,3.5243652E3,3.4068298E3,1.032845E3,3.4830594E4,1.2533486E4,3.1186653E3,6.877122E3,1.0001015E4,6.1560864E3,1.747272E4,5.4878125E3,5.0905576E3,3.688343E2,1.7180066E3,3.9626558E3,2.3273662E3,2.8193787E3,2.266185E3,2.457552E2,1.6614811E3,1.0674235E3,1.3651301E3,1.3539994E3,4.08E2,1.1653298E2,1.0800615E3,1.1411189E3,6.857759E3,2.5869607E3,1.4886014E3,5.686193E2,1.2484786E2,1.0547987E2,1.3224215E3,8.465386E3,7.606284E2,3.5719418E2,1.594664E2,1.9018645E2,3.0021597E2,7.8473854E1,1.5514137E3,8.2107526E2,9.921947E0,3.2075555E2,2.3936891E2,3.2475275E2,2.555602E2,1.9012711E3,2.0135131E3,1.712529E3],"tree_param":{"num_deleted":"0","num_feature":"27","num_nodes":"127","size_leaf_vector":"1"}},{"base_weights":[4.0008497E-4,3.280923E-1,-5.0064906E-2,9.229701E-1,-1.0689216E0,-2.3747508E-1,9.355655E-2,1.047456E0,2.6243532E-1,-1.1469343E0,-1.9320208E-1,-4.8000004E-2,-8.0160457E-1,3.2918876E-1,-2.6619327E-1,1.1219424E0,-3.6462533E-1,4.1887552E-1,-3.8421464E-1,-1.1890467E0,6.980625E-1,2.690193E-1,-5.432494E-1,-3.0656692E-1,1.1572761E-1,2.4942642E-2,-8.701337E-1,1.7164725E-1,7.596998E-1,-3.340745E-1,6.863455E-1,1.2985961E0,9.283352E-1,5.9381646E-1,-1.0281683E0,7.6957905E-1,3.4539994E-2,-6.916371E-1,2.1140607E-1,-1.274347E0,-8.6850506E-1,-1.9295044E-1,1.8637313E0,-9.188592E-2,9.927061E-1,6.989271E-2,-7.854054E-1,-4.0062663E-1,2.769081E-1,-2.6086997E-3,4.5944694E-1,4.518117E-1,-9.703551E-1,-1.1755343E-1,-9.435518E-1,3.8932824E-1,-6.320854E-2,1.0576828E0,5.602524E-1,-2.4592355E-1,-7.8940386E-1,-9.868255E-2,1.0056103E0,1.3367978E-1,7.628667E-2,1.0485091E-1,-2.9330734E-2,1.2139535E-1,-1.8258369E-2,-1.2794356E-1,-3.5401236E-2,-5.062137E-3,9.628465E-2,-2.8223166E-2,3.06247E-2,2.9324075E-2,-7.796208E-2,-2.9684454E-2,7.314749E-2,-1.4157449E-1,-1.1267239E-1,-1.1257347E-1,1.3651388E-2,4.7332417E-2,-7.291515E-2,1.9925034E-1,1.24406874E-1,-5.4147776E-2,9.787171E-2,1.1243339E-1,-1.2623812E-1,1.088564E-1,-2.1279844E-2,-8.581428E-2,7.058633E-2,-2.3776432E-2,-8.2397304E-2,5.95348E-2,-2.8455576E-2,2.504156E-2,-2.2406565E-2,7.347109E-2,1.6236413E-2,1.3490276E-1,2.1719525E-2,5.398785E-2,-1.07515536E-1,5.1035564E-2,-4.4482403E-2,-7.460912E-2,-1.1957053E-1,3.0838644E-2,9.509651E-2,-1.0812021E-2,8.060681E-2,1.08904205E-1,-6.1648414E-3,4.6502735E-2,1.3395503E-1,-9.534038E-3,-4.3654945E-2,-6.920884E-2,-1.0531639E-1,-7.8031085E-2,8.8334836E-2,4.426401E-2,1.3473888E-1],"categories":[],"categories_nodes":[],"categories_segments":[],"categories_sizes":[],"default_left":[0,0,0,0,0,0,0,0,0,0,1,1,0,0,0,0,0,0,1,0,0,0,0,0,0,0,0,1,0,0,0,0,0,0,0,1,1,0,0,0,0,1,1,0,1,0,0,0,0,0,0,0,0,0,0,0,0,1,0,1,0,0,0,0,0,0,0,0,0,0,0,0,0,0,0,0,0,0,0,0,0,0,0,0,0,0,0,0,0,0,0,0,0,0,0,0,0,0,0,0,0,0,0,0,0,0,0,0,0,0,0,0,0,0,0,0,0,0,0,0,0,0,0,0,0,0,0],"id":9,"left_children":[1,3,5,7,9,11,13,15,17,19,21,23,25,27,29,31,33,35,37,39,41,43,45,47,49,51,53,55,57,59,61,63,65,67,69,71,73,75,77,79,81,83,85,87,89,91,93,95,97,99,101,103,105,107,109,111,113,115,117,119,121,123,125,-1,-1,-1,-1,-1,-1,-1,-1,-1,-1,-1,-1,-1,-1,-1,-1,-1,-1,-1,-1,-1,-1,-1,-1,-1,-1,-1,-1,-1,-1,-1,-1,-1,-1,-1,-1,-1,-1,-1,-1,-1,-1,-1,-1,-1,-1,-1,-1,-1,-1,-1,-1,-1,-1,-1,-1,-1,-1,-1,-1,-1,-1,-1,-1],"loss_changes":[3.9051726E3,2.6190668E4,5.507974E3,1.8171797E3,6.427842E2,9.489823E3,9.820717E3,1.9565078E3,3.5486768E2,6.7229004E2,1.2490702E2,2.8136594E3,1.2644053E3,4.747653E3,2.9649287E3,6.029922E2,5.937169E2,3.805842E2,1.25308304E2,2.2992188E2,2.0131653E2,8.705646E1,6.525314E1,1.414302E3,1.6552313E3,7.2695575E2,1.1388271E3,2.6200923E3,1.1139688E3,1.7177598E3,7.646422E2,1.8797852E2,1.238206E3,1.8422018E2,9.295886E1,2.3409143E2,1.16136284E2,3.9316177E1,6.192781E1,1.3766113E2,4.6007886E2,3.984601E1,4.2173157E0,1.0790874E2,3.433262E1,3.6297775E1,3.476036E1,1.5298252E3,6.398678E2,1.6963923E3,8.521704E2,2.5176692E2,8.186679E1,3.7696765E2,9.342129E2,1.2088252E3,9.625628E2,2.6396777E2,8.332117E2,1.0293398E3,1.7745312E2,5.916429E2,4.166709E2,0E0,0E0,0E0,0E0,0E0,0E0,0E0,0E0,0E0,0E0,0E0,0E0,0E0,0E0,0E0,0E0,0E0,0E0,0E0,0E0,0E0,0E0,0E0,0E0,0E0,0E0,0E0,0E0,0E0,0E0,0E0,0E0,0E0,0E0,0E0,0E0,0E0,0E0,0E0,0E0,0E0,0E0,0E0,0E0,0E0,0E0,0E0,0E0,0E0,0E0,0E0,0E0,0E0,0E0,0E0,0E0,0E0,0E0,0E0,0E0,0E0,0E0,0E0,0E0],"parents":[2147483647,0,0,1,1,2,2,3,3,4,4,5,5,6,6,7,7,8,8,9,9,10,10,11,11,12,12,13,13,14,14,15,15,16,16,17,17,18,18,19,19,20,20,21,21,22,22,23,23,24,24,25,25,26,26,27,27,28,28,29,29,30,30,31,31,32,32,33,33,34,34,35,35,36,36,37,37,38,38,39,39,40,40,41,41,42,42,43,43,44,44,45,45,46,46,47,47,48,48,49,49,50,50,51,51,52,52,53,53,54,54,55,55,56,56,57,57,58,58,59,59,60,60,61,61,62,62],"right_children":[2,4,6,8,10,12,14,16,18,20,22,24,26,28,30,32,34,36,38,40,42,44,46,48,50,52,54,56,58,60,62,64,66,68,70,72,74,76,78,80,82,84,86,88,90,92,94,96,98,100,102,104,106,108,110,112,114,116,118,120,122,124,126,-1,-1,-1,-1,-1,-1,-1,-1,-1,-1,-1,-1,-1,-1,-1,-1,-1,-1,-1,-1,-1,-1,-1,-1,-1,-1,-1,-1,-1,-1,-1,-1,-1,-1,-1,-1,-1,-1,-1,-1,-1,-1,-1,-1,-1,-1,-1,-1,-1,-1,-1,-1,-1,-1,-1,-1,-1,-1,-1,-1,-1,-1,-1,-1],"split_conditions":[0E0,1E0,1E0,1.81E2,2.11E2,2.76E0,4.541E0,7E0,2.55E2,8E0,3.4666668E1,2.8857143E1,5.2E1,5E0,2.045E0,8.6E1,2.1E1,1E0,4.04E1,4E0,2.8E1,2.6E2,1.1E1,1.88E2,1.39E2,8E0,4E0,3.4E1,1.27E2,7.5E1,7.7E1,6E0,4E0,2.99E2,2E1,6.615385E1,7.849661E1,2.465E1,5.102752E0,1.02E2,7.7E1,1.3E1,2.1125E1,1E0,5.8450947E0,7.524398E1,2.98E2,5E0,7E0,2E0,4E0,2.1E1,1.4E1,2.39E2,4.54E0,1.525E0,3.126E0,5.734066E1,7.4E1,3.6614037E1,1.26E2,7E0,4E0,1.3367978E-1,7.628667E-2,1.0485091E-1,-2.9330734E-2,1.2139535E-1,-1.8258369E-2,-1.2794356E-1,-3.5401236E-2,-5.062137E-3,9.628465E-2,-2.8223166E-2,3.06247E-2,2.9324075E-2,-7.796208E-2,-2.9684454E-2,7.314749E-2,-1.4157449E-1,-1.1267239E-1,-1.1257347E-1,1.3651388E-2,4.7332417E-2,-7.291515E-2,1.9925034E-1,1.24406874E-1,-5.4147776E-2,9.787171E-2,1.1243339E-1,-1.2623812E-1,1.088564E-1,-2.1279844E-2,-8.581428E-2,7.058633E-2,-2.3776432E-2,-8.2397304E-2,5.95348E-2,-2.8455576E-2,2.504156E-2,-2.2406565E-2,7.347109E-2,1.6236413E-2,1.3490276E-1,2.1719525E-2,5.398785E-2,-1.07515536E-1,5.1035564E-2,-4.4482403E-2,-7.460912E-2,-1.1957053E-1,3.0838644E-2,9.509651E-2,-1.0812021E-2,8.060681E-2,1.08904205E-1,-6.1648414E-3,4.6502735E-2,1.3395503E-1,-9.534038E-3,-4.3654945E-2,-6.920884E-2,-1.0531639E-1,-7.8031085E-2,8.8334836E-2,4.426401E-2,1.3473888E-1],"split_indices":[14,26,26,12,12,14,10,7,12,7,21,21,12,7,14,12,12,7,21,7,12,12,15,6,6,7,6,21,6,15,12,7,7,2,15,22,22,24,25,12,12,21,21,7,25,22,12,7,7,7,7,12,12,12,14,14,14,21,12,21,15,7,7,0,0,0,0,0,0,0,0,0,0,0,0,0,0,0,0,0,0,0,0,0,0,0,0,0,0,0,0,0,0,0,0,0,0,0,0,0,0,0,0,0,0,0,0,0,0,0,0,0,0,0,0,0,0,0,0,0,0,0,0,0,0,0,0],"split_type":[0,0,0,0,0,0,0,0,0,0,0,0,0,0,0,0,0,0,0,0,0,0,0,0,0,0,0,0,0,0,0,0,0,0,0,0,0,0,0,0,0,0,0,0,0,0,0,0,0,0,0,0,0,0,0,0,0,0,0,0,0,0,0,0,0,0,0,0,0,0,0,0,0,0,0,0,0,0,0,0,0,0,0,0,0,0,0,0,0,0,0,0,0,0,0,0,0,0,0,0,0,0,0,0,0,0,0,0,0,0,0,0,0,0,0,0,0,0,0,0,0,0,0,0,0,0,0],"sum_hessian":[2.3614583E5,3.1512871E4,2.0463295E5,2.21018E4,9.41107E3,8.878182E4,1.1585114E5,1.8596479E4,3.505322E3,8.640986E3,7.700838E2,6.646066E4,2.232116E4,7.0001195E4,4.584994E4,1.7664873E4,9.316051E2,2.8227766E3,6.825455E2,8.448503E3,1.9248343E2,3.319675E2,4.3811633E2,2.576709E4,4.0693566E4,1.7090085E3,2.0612152E4,5.1248633E4,1.8752564E4,4.280048E4,3.0494622E3,9.233874E3,8.431E3,3.8115634E2,5.504488E2,1.4754427E3,1.3473337E3,4.500806E2,2.3246489E2,6.670438E3,1.7780652E3,1.095671E2,8.2916336E1,2.2208563E2,1.0988187E2,1.2424296E2,3.1387338E2,2.2190209E4,3.5768816E3,3.0272342E4,1.0421224E4,1.1964249E3,5.125836E2,1.832322E3,1.877983E4,2.6596477E4,2.4652158E4,7.5172173E3,1.1235347E4,3.5859652E4,6.9408247E3,8.818373E2,2.1676248E3,8.617859E3,6.1601416E2,7.676043E3,7.5495654E2,2.1158926E2,1.6956706E2,4.00339E2,1.5010979E2,2.815064E2,1.1939364E3,6.220608E2,7.2527295E2,3.6719074E1,4.133615E2,1.1778535E2,1.1467954E2,3.4026711E3,3.2677666E3,1.4156232E3,3.62442E2,4.890982E1,6.0657276E1,6.6815865E1,1.610047E1,1.5675272E2,6.533292E1,1.0429564E2,5.5862308E0,2.6369678E1,9.7873276E1,2.9968085E2,1.4192533E1,1.6026385E4,6.1638247E3,2.2823586E3,1.2945231E3,1.4129097E4,1.6143245E4,5.4084854E3,5.012739E3,2.4702116E2,9.494038E2,3.2992374E1,4.7959125E2,6.2761176E2,1.2047102E3,1.0534364E4,8.245466E3,2.324763E4,3.3488452E3,2.3441895E4,1.2102632E3,7.3123794E3,2.0483759E2,1.0013376E4,1.2219714E3,2.0034826E4,1.5824828E4,5.0728115E3,1.8680133E3,5.206554E2,3.6118185E2,8.197101E2,1.3479148E3],"tree_param":{"num_deleted":"0","num_feature":"27","num_nodes":"127","size_leaf_vector":"1"}},{"base_weights":[-1.0978206E-3,4.982503E-2,-2.581595E-1,2.0243639E-1,-5.9289828E-2,-6.243101E-1,7.0053947E-1,-1.0919534E-1,4.539127E-1,2.1513253E-1,-2.4796906E-1,-5.3387754E-2,-7.61042E-1,1.4947763E-1,9.186112E-1,-3.7908724E-1,1.1505307E-1,9.305675E-1,8.9252494E-2,3.200673E-1,-3.3228162E-1,-1.5435925E-1,-7.4865514E-1,4.5277214E-1,-8.444814E-1,-5.154874E-1,-1.0485921E0,-6.113762E-1,8.468341E-1,4.767571E-1,1.216924E0,-2.8652728E-1,-8.7736386E-1,2.0578964E-1,-3.480413E-1,1.1579535E0,6.8960685E-1,-1.5200388E-1,4.9914125E-1,1.05118155E-1,5.343144E-1,-7.285775E-1,4.3658173E-1,-2.4016495E-1,2.9613256E-1,-1.0727046E0,-1.385382E-1,6.879371E-1,-3.849848E-1,2.8658962E-1,-1.0402356E0,8.2740344E-2,-7.20151E-1,-8.931255E-1,-1.234674E0,-9.085383E-1,-8.5151255E-2,-1.1913665E-1,1.0963238E0,-6.1972785E-1,7.204598E-1,1.0713793E0,1.3985441E0,-3.8805425E-2,2.4639356E-3,-9.9195115E-2,9.145408E-3,7.528736E-3,5.954975E-2,-5.9258442E-2,1.487833E-2,1.2020668E-1,5.597616E-2,7.911741E-2,-2.1011773E-2,9.220942E-3,-5.584755E-2,8.149203E-2,5.477516E-3,2.5247782E-2,-2.0404655E-2,7.664772E-2,2.7507344E-2,-1.16952516E-1,-4.8091818E-2,5.5908497E-2,-7.0167385E-2,-1.2243332E-2,-5.5850293E-2,8.596716E-2,9.22113E-3,-1.1673885E-1,-7.2151594E-2,7.405332E-3,-1.0713252E-1,1.3371055E-1,4.8090395E-2,1.5068635E-1,-5.5767722E-2,6.593784E-2,-1.0841461E-1,-7.614296E-2,-1.2268603E-1,-1.8728843E-2,4.3037787E-2,-6.34668E-2,-1.2439475E-1,-3.551014E-2,-1.0518741E-1,-1.2424034E-1,-9.4901666E-2,-1.1903601E-1,-7.0345044E-2,-4.5437586E-2,5.317105E-2,-1.5912601E-1,1.2283546E-2,7.3015094E-2,1.2864533E-1,-6.98202E-2,1.7116027E-1,8.6790636E-2,-1.7059367E-2,1.14724934E-1,-2.5718464E-2,1.4069448E-1,-2.0730129E-1],"categories":[],"categories_nodes":[],"categories_segments":[],"categories_sizes":[],"default_left":[0,0,0,0,0,0,0,0,0,0,0,0,0,0,0,0,0,0,0,0,0,0,0,0,0,0,0,0,0,0,0,0,0,0,0,0,0,0,0,0,0,0,0,0,0,0,0,0,0,0,0,0,0,0,1,0,0,0,0,0,0,0,1,0,0,0,0,0,0,0,0,0,0,0,0,0,0,0,0,0,0,0,0,0,0,0,0,0,0,0,0,0,0,0,0,0,0,0,0,0,0,0,0,0,0,0,0,0,0,0,0,0,0,0,0,0,0,0,0,0,0,0,0,0,0,0,0],"id":10,"left_children":[1,3,5,7,9,11,13,15,17,19,21,23,25,27,29,31,33,35,37,39,41,43,45,47,49,51,53,55,57,59,61,63,65,67,69,71,73,75,77,79,81,83,85,87,89,91,93,95,97,99,101,103,105,107,109,111,113,115,117,119,121,123,125,-1,-1,-1,-1,-1,-1,-1,-1,-1,-1,-1,-1,-1,-1,-1,-1,-1,-1,-1,-1,-1,-1,-1,-1,-1,-1,-1,-1,-1,-1,-1,-1,-1,-1,-1,-1,-1,-1,-1,-1,-1,-1,-1,-1,-1,-1,-1,-1,-1,-1,-1,-1,-1,-1,-1,-1,-1,-1,-1,-1,-1,-1,-1,-1],"loss_changes":[3.0486746E3,3.2369937E3,1.3517643E4,6.3511094E3,5.8689395E3,2.1752412E3,1.2788232E3,2.1905354E3,7.7955527E3,2.6528804E3,3.14796E3,2.156735E3,1.5868545E3,1.602224E3,1.0044883E3,7.572815E2,8.3074585E2,1.0643184E3,2.5129355E3,1.7846113E3,2.2639287E3,2.1874995E3,2.0915098E3,6.4738354E2,4.6560583E2,1.4849758E3,2.984414E2,2.2576263E2,3.798302E2,8.2208765E2,1.1880908E2,4.3766455E2,2.8569202E2,8.406626E2,3.9363138E2,2.6320898E2,8.628657E2,1.5879839E3,1.3211277E3,8.8142975E2,1.1678818E3,5.348291E2,3.5281357E2,1.7814844E3,1.0404377E3,2.2891064E2,7.2805634E2,3.441045E2,2.3626077E2,1.5955121E2,9.229236E1,2.903768E2,4.0383447E2,4.8175146E2,9.221191E0,5.250476E1,1.1920745E2,1.15714745E2,8.624048E1,1.0358598E2,3.3072632E2,2.5539893E2,6.1868896E1,0E0,0E0,0E0,0E0,0E0,0E0,0E0,0E0,0E0,0E0,0E0,0E0,0E0,0E0,0E0,0E0,0E0,0E0,0E0,0E0,0E0,0E0,0E0,0E0,0E0,0E0,0E0,0E0,0E0,0E0,0E0,0E0,0E0,0E0,0E0,0E0,0E0,0E0,0E0,0E0,0E0,0E0,0E0,0E0,0E0,0E0,0E0,0E0,0E0,0E0,0E0,0E0,0E0,0E0,0E0,0E0,0E0,0E0,0E0,0E0,0E0,0E0,0E0,0E0],"parents":[2147483647,0,0,1,1,2,2,3,3,4,4,5,5,6,6,7,7,8,8,9,9,10,10,11,11,12,12,13,13,14,14,15,15,16,16,17,17,18,18,19,19,20,20,21,21,22,22,23,23,24,24,25,25,26,26,27,27,28,28,29,29,30,30,31,31,32,32,33,33,34,34,35,35,36,36,37,37,38,38,39,39,40,40,41,41,42,42,43,43,44,44,45,45,46,46,47,47,48,48,49,49,50,50,51,51,52,52,53,53,54,54,55,55,56,56,57,57,58,58,59,59,60,60,61,61,62,62],"right_children":[2,4,6,8,10,12,14,16,18,20,22,24,26,28,30,32,34,36,38,40,42,44,46,48,50,52,54,56,58,60,62,64,66,68,70,72,74,76,78,80,82,84,86,88,90,92,94,96,98,100,102,104,106,108,110,112,114,116,118,120,122,124,126,-1,-1,-1,-1,-1,-1,-1,-1,-1,-1,-1,-1,-1,-1,-1,-1,-1,-1,-1,-1,-1,-1,-1,-1,-1,-1,-1,-1,-1,-1,-1,-1,-1,-1,-1,-1,-1,-1,-1,-1,-1,-1,-1,-1,-1,-1,-1,-1,-1,-1,-1,-1,-1,-1,-1,-1,-1,-1,-1,-1,-1,-1,-1,-1],"split_conditions":[6.234E0,1E0,1E0,2.31E-1,4.071E0,9.1E1,1.11E2,4.4E0,4.391E0,2E0,2.31E-1,7E0,4E0,6E0,3E0,6E0,6E0,3.273E0,8.4E1,3E0,5.137E0,6E0,5.02E0,1.0814E1,2.7E1,1.81E2,6E0,5E0,3.9E1,1.9E2,8.26E0,3.8314285E1,2.05E2,1.79E2,2.38E2,6E0,5E0,2E0,4E0,4.9E1,1.11E2,3.649E0,1.29E2,1.68E2,1.71E2,1.61E2,1.45E2,4.5E1,1.6E1,9E0,8E0,4.6E1,3.63E2,1.28E2,6.482972E0,6.9E1,9.059E0,1.4E1,7E0,9.677E0,6.1E1,3.45E2,8E0,-3.8805425E-2,2.4639356E-3,-9.9195115E-2,9.145408E-3,7.528736E-3,5.954975E-2,-5.9258442E-2,1.487833E-2,1.2020668E-1,5.597616E-2,7.911741E-2,-2.1011773E-2,9.220942E-3,-5.584755E-2,8.149203E-2,5.477516E-3,2.5247782E-2,-2.0404655E-2,7.664772E-2,2.7507344E-2,-1.16952516E-1,-4.8091818E-2,5.5908497E-2,-7.0167385E-2,-1.2243332E-2,-5.5850293E-2,8.596716E-2,9.22113E-3,-1.1673885E-1,-7.2151594E-2,7.405332E-3,-1.0713252E-1,1.3371055E-1,4.8090395E-2,1.5068635E-1,-5.5767722E-2,6.593784E-2,-1.0841461E-1,-7.614296E-2,-1.2268603E-1,-1.8728843E-2,4.3037787E-2,-6.34668E-2,-1.2439475E-1,-3.551014E-2,-1.0518741E-1,-1.2424034E-1,-9.4901666E-2,-1.1903601E-1,-7.0345044E-2,-4.5437586E-2,5.317105E-2,-1.5912601E-1,1.2283546E-2,7.3015094E-2,1.2864533E-1,-6.98202E-2,1.7116027E-1,8.6790636E-2,-1.7059367E-2,1.14724934E-1,-2.5718464E-2,1.4069448E-1,-2.0730129E-1],"split_indices":[13,26,26,13,18,12,12,18,13,0,13,7,7,7,7,7,7,13,6,7,13,7,13,13,12,12,7,7,12,12,13,23,6,6,6,7,7,7,7,6,6,13,6,6,6,12,6,12,12,7,7,15,11,12,25,12,13,12,7,13,15,11,25,0,0,0,0,0,0,0,0,0,0,0,0,0,0,0,0,0,0,0,0,0,0,0,0,0,0,0,0,0,0,0,0,0,0,0,0,0,0,0,0,0,0,0,0,0,0,0,0,0,0,0,0,0,0,0,0,0,0,0,0,0,0,0,0],"split_type":[0,0,0,0,0,0,0,0,0,0,0,0,0,0,0,0,0,0,0,0,0,0,0,0,0,0,0,0,0,0,0,0,0,0,0,0,0,0,0,0,0,0,0,0,0,0,0,0,0,0,0,0,0,0,0,0,0,0,0,0,0,0,0,0,0,0,0,0,0,0,0,0,0,0,0,0,0,0,0,0,0,0,0,0,0,0,0,0,0,0,0,0,0,0,0,0,0,0,0,0,0,0,0,0,0,0,0,0,0,0,0,0,0,0,0,0,0,0,0,0,0,0,0,0,0,0,0],"sum_hessian":[2.3289348E5,1.9438703E5,3.850646E4,8.1040484E4,1.1334654E5,2.7864625E4,1.0641834E4,3.619182E4,4.4848664E4,4.618017E4,6.716637E4,5.3842295E3,2.2480396E4,3.0177473E3,7.624087E3,1.6424088E4,1.9767734E4,1.9438566E4,2.54101E4,3.875213E4,7.428045E3,5.658784E4,1.0578528E4,3.2836821E3,2.1005476E3,1.2127154E4,1.0353241E4,1.4432291E3,1.5745183E3,3.0738167E3,4.55027E3,1.3852432E4,2.5716558E3,1.6529564E4,3.238171E3,9.99903E3,9.439535E3,1.5995776E4,9.414323E3,1.9345115E4,1.9407014E4,4.9016406E3,2.5264043E3,4.753438E4,9.053462E3,6.9084873E3,3.6700408E3,2.5640984E3,7.1958374E2,3.098375E2,1.7907101E3,3.0914644E3,9.03569E3,5.643794E3,4.7094473E3,9.219005E2,5.213287E2,3.232985E2,1.2512197E3,5.58669E2,2.5151477E3,2.5298374E3,2.0204327E3,1.04444E4,3.4080308E3,2.299641E3,2.720147E2,1.2383776E4,4.145788E3,2.169918E3,1.0682529E3,9.311362E3,6.8766846E2,8.482134E3,9.5740173E2,9.992768E3,6.003009E3,5.5029434E3,3.91138E3,1.3100907E4,6.244208E3,1.0237174E4,9.16984E3,1.7615494E3,3.1400913E3,2.2813823E3,2.4502191E2,3.4701887E4,1.2832491E4,2.4047336E3,6.648728E3,5.439596E3,1.4688912E3,2.9896013E3,6.804395E2,6.1869E2,1.9454084E3,5.9544724E1,6.60039E2,2.4399812E2,6.583938E1,7.2006146E2,1.0706486E3,1.7402104E3,1.3512538E3,7.769868E3,1.2658223E3,1.2865862E3,4.357208E3,4.582114E3,1.2733335E2,3.8628387E2,5.3561664E2,3.262901E2,1.9503857E2,4.48516E1,2.784469E2,4.2928802E2,8.2193176E2,5.4115393E2,1.7515083E1,2.1580686E3,3.5707907E2,2.3933E3,1.3653738E2,2.0161487E3,4.284087E0],"tree_param":{"num_deleted":"0","num_feature":"27","num_nodes":"127","size_leaf_vector":"1"}},{"base_weights":[-7.1907876E-4,5.132526E-2,-2.459816E-1,2.1591225E-1,-6.281256E-2,-6.0158443E-1,7.1217084E-1,8.5346836E-1,1.1321212E-2,-9.5161223E-1,1.1846637E-2,-1.7349224E-1,-7.685254E-1,1.2077836E-1,8.817603E-1,9.418761E-1,-9.64132E-2,-2.7176785E-1,1.3649678E-1,7.1085626E-1,-9.885657E-1,-2.2296904E-1,1.9494931E-1,-7.420731E-1,3.955138E-2,-9.0897314E-2,-8.322281E-1,3.1308278E-1,-1.0588596E0,-2.3094207E-2,9.80666E-1,-5.785016E-1,9.755949E-1,1.665616E-1,-8.1374973E-1,-5.2552617E-1,2.1373308E-1,-2.7121333E-2,5.0412863E-1,-4.0799087E-1,1.456403E0,-1.0708015E0,-1.5467185E-1,1.0150238E-2,-3.9724216E-1,3.884902E-1,-9.797778E-2,5.3823423E-2,-9.759731E-1,-7.412939E-1,1.892284E-1,5.9615314E-1,-6.2501633E-1,-6.4623004E-1,-1.0540392E0,5.7974565E-1,-6.9434613E-1,-1.19884364E-1,-1.6285577E0,5.993961E-1,-8.659344E-1,6.5546125E-1,1.242548E0,5.132985E-2,-1.0581312E-1,1.1097509E-1,6.45717E-2,-1.0232374E-2,7.849291E-2,-9.458267E-2,1.03163354E-1,-6.588992E-2,3.8163539E-3,1.0557267E-2,1.2600408E-1,-2.8658167E-2,1.2404991E-2,4.0609237E-2,9.650915E-2,5.6534123E-2,-7.653241E-2,7.918791E-2,1.8410264E-1,-7.256281E-2,-1.1651069E-1,3.631574E-2,-3.912196E-2,2.3702206E-2,-3.0140517E-2,-1.7690385E-2,-6.371061E-2,7.078523E-2,2.7218213E-2,2.109434E-2,-2.4415405E-2,-1.171655E-1,3.450784E-2,-5.0850082E-2,-1.1000528E-1,-6.8051475E-3,-8.920082E-2,1.19738236E-1,1.3020404E-2,-8.694507E-2,7.326129E-2,8.559813E-2,-7.756188E-2,-7.203903E-2,3.0477498E-2,-1.12076275E-1,-5.191906E-2,2.2933649E-2,1.11373596E-1,-7.836518E-2,1.1709084E-1,-2.0231107E-1,1.2748255E-1,-1.8029197E-1,-3.616379E-2,-1.1805254E-1,7.8022294E-2,-1.2035282E-1,-3.8840633E-2,9.540876E-2,3.8625605E-2,1.3067745E-1,7.19476E-2],"categories":[],"categories_nodes":[],"categories_segments":[],"categories_sizes":[],"default_left":[0,0,0,0,0,0,0,0,0,0,0,0,0,0,0,0,0,0,0,0,0,0,0,0,0,0,0,0,1,0,0,0,0,0,1,0,0,0,0,0,0,0,0,0,0,0,0,0,0,0,0,0,0,0,0,0,0,0,0,0,0,0,0,0,0,0,0,0,0,0,0,0,0,0,0,0,0,0,0,0,0,0,0,0,0,0,0,0,0,0,0,0,0,0,0,0,0,0,0,0,0,0,0,0,0,0,0,0,0,0,0,0,0,0,0,0,0,0,0,0,0,0,0,0,0,0,0],"id":11,"left_children":[1,3,5,7,9,11,13,15,17,19,21,23,25,27,29,31,33,35,37,39,41,43,45,47,49,51,53,55,57,59,61,63,65,67,69,71,73,75,77,79,81,83,85,87,89,91,93,95,97,99,101,103,105,107,109,111,113,115,117,119,121,123,125,-1,-1,-1,-1,-1,-1,-1,-1,-1,-1,-1,-1,-1,-1,-1,-1,-1,-1,-1,-1,-1,-1,-1,-1,-1,-1,-1,-1,-1,-1,-1,-1,-1,-1,-1,-1,-1,-1,-1,-1,-1,-1,-1,-1,-1,-1,-1,-1,-1,-1,-1,-1,-1,-1,-1,-1,-1,-1,-1,-1,-1,-1,-1,-1],"loss_changes":[2.932042E3,3.559742E3,1.3700849E4,1.0121656E4,7.4251025E3,2.0957285E3,1.0915303E3,1.5831777E3,2.0817822E3,5.3339307E2,4.438289E3,9.968406E2,9.106787E2,5.508514E2,7.5702246E2,8.8470703E2,3.0310547E2,2.2192336E3,2.4503057E3,1.5835638E2,5.815498E2,1.8374131E3,3.2882622E3,4.1761267E2,6.99878E2,6.660952E2,7.949658E2,5.6117346E2,1.8189166E2,4.383176E2,6.4858105E2,1.9682047E2,7.459824E2,1.9562308E2,1.06026E2,8.8939575E2,6.996637E2,1.1057482E3,5.665781E2,2.7008793E1,2.760733E1,2.5049219E2,9.355664E1,1.3676504E3,1.3676726E3,1.2970767E3,1.0420983E3,1.8258284E2,9.9996704E1,9.76767E1,2.988504E2,1.5942947E2,2.2842178E2,7.401929E2,3.1326074E2,3.086847E2,7.376927E1,3.4664023E2,4.61297E1,1.5559038E2,5.674463E1,2.732411E2,1.4092041E2,0E0,0E0,0E0,0E0,0E0,0E0,0E0,0E0,0E0,0E0,0E0,0E0,0E0,0E0,0E0,0E0,0E0,0E0,0E0,0E0,0E0,0E0,0E0,0E0,0E0,0E0,0E0,0E0,0E0,0E0,0E0,0E0,0E0,0E0,0E0,0E0,0E0,0E0,0E0,0E0,0E0,0E0,0E0,0E0,0E0,0E0,0E0,0E0,0E0,0E0,0E0,0E0,0E0,0E0,0E0,0E0,0E0,0E0,0E0,0E0,0E0,0E0,0E0,0E0],"parents":[2147483647,0,0,1,1,2,2,3,3,4,4,5,5,6,6,7,7,8,8,9,9,10,10,11,11,12,12,13,13,14,14,15,15,16,16,17,17,18,18,19,19,20,20,21,21,22,22,23,23,24,24,25,25,26,26,27,27,28,28,29,29,30,30,31,31,32,32,33,33,34,34,35,35,36,36,37,37,38,38,39,39,40,40,41,41,42,42,43,43,44,44,45,45,46,46,47,47,48,48,49,49,50,50,51,51,52,52,53,53,54,54,55,55,56,56,57,57,58,58,59,59,60,60,61,61,62,62],"right_children":[2,4,6,8,10,12,14,16,18,20,22,24,26,28,30,32,34,36,38,40,42,44,46,48,50,52,54,56,58,60,62,64,66,68,70,72,74,76,78,80,82,84,86,88,90,92,94,96,98,100,102,104,106,108,110,112,114,116,118,120,122,124,126,-1,-1,-1,-1,-1,-1,-1,-1,-1,-1,-1,-1,-1,-1,-1,-1,-1,-1,-1,-1,-1,-1,-1,-1,-1,-1,-1,-1,-1,-1,-1,-1,-1,-1,-1,-1,-1,-1,-1,-1,-1,-1,-1,-1,-1,-1,-1,-1,-1,-1,-1,-1,-1,-1,-1,-1,-1,-1,-1,-1,-1,-1,-1,-1],"split_conditions":[1.923E0,1E0,1E0,-1.91E-1,0E0,2.55E2,2.5E2,2.9E2,7E0,3E0,5.33E-1,5E0,7.2E1,2.45E2,7.4E1,3E0,3.33E2,1.79E2,9.8E1,1.6E1,2.11E2,7E0,9E0,4.3E1,5.433155E1,5.358E0,3.938E0,1E1,6.837607E1,5E0,3.458E0,1.4E1,1.34E2,4.8E1,9.84E1,4.64E2,5.52E2,9E0,4.74E2,1.92E2,2.49E2,7E0,1E1,2.08E2,1.22E2,6E1,6.953447E1,2E0,4.71E-1,1.26E2,1.85E2,3E0,1.9E1,7E1,1E1,2.32E2,2.42E2,2.47E2,8.728205E1,2.2E1,4.277E0,8E0,1E1,5.132985E-2,-1.0581312E-1,1.1097509E-1,6.45717E-2,-1.0232374E-2,7.849291E-2,-9.458267E-2,1.03163354E-1,-6.588992E-2,3.8163539E-3,1.0557267E-2,1.2600408E-1,-2.8658167E-2,1.2404991E-2,4.0609237E-2,9.650915E-2,5.6534123E-2,-7.653241E-2,7.918791E-2,1.8410264E-1,-7.256281E-2,-1.1651069E-1,3.631574E-2,-3.912196E-2,2.3702206E-2,-3.0140517E-2,-1.7690385E-2,-6.371061E-2,7.078523E-2,2.7218213E-2,2.109434E-2,-2.4415405E-2,-1.171655E-1,3.450784E-2,-5.0850082E-2,-1.1000528E-1,-6.8051475E-3,-8.920082E-2,1.19738236E-1,1.3020404E-2,-8.694507E-2,7.326129E-2,8.559813E-2,-7.756188E-2,-7.203903E-2,3.0477498E-2,-1.12076275E-1,-5.191906E-2,2.2933649E-2,1.11373596E-1,-7.836518E-2,1.1709084E-1,-2.0231107E-1,1.2748255E-1,-1.8029197E-1,-3.616379E-2,-1.1805254E-1,7.8022294E-2,-1.2035282E-1,-3.8840633E-2,9.540876E-2,3.8625605E-2,1.3067745E-1,7.19476E-2],"split_indices":[14,26,26,14,14,11,11,11,8,8,17,8,12,11,12,8,11,6,6,12,12,8,8,12,22,14,14,8,22,8,14,12,12,16,22,3,3,8,3,11,11,8,8,6,6,6,22,8,17,12,11,8,12,15,8,11,11,11,22,12,14,8,8,0,0,0,0,0,0,0,0,0,0,0,0,0,0,0,0,0,0,0,0,0,0,0,0,0,0,0,0,0,0,0,0,0,0,0,0,0,0,0,0,0,0,0,0,0,0,0,0,0,0,0,0,0,0,0,0,0,0,0,0,0,0,0,0],"split_type":[0,0,0,0,0,0,0,0,0,0,0,0,0,0,0,0,0,0,0,0,0,0,0,0,0,0,0,0,0,0,0,0,0,0,0,0,0,0,0,0,0,0,0,0,0,0,0,0,0,0,0,0,0,0,0,0,0,0,0,0,0,0,0,0,0,0,0,0,0,0,0,0,0,0,0,0,0,0,0,0,0,0,0,0,0,0,0,0,0,0,0,0,0,0,0,0,0,0,0,0,0,0,0,0,0,0,0,0,0,0,0,0,0,0,0,0,0,0,0,0,0,0,0,0,0,0,0],"sum_hessian":[2.2970039E5,1.8949139E5,4.0209E4,7.759636E4,1.1189502E5,2.9325633E4,1.0883365E4,1.8850473E4,5.874589E4,8.669924E3,1.032251E5,8.228097E3,2.1097537E4,2.425806E3,8.457559E3,1.724541E4,1.6050625E3,1.8011367E4,4.0734523E4,1.8812865E2,8.481796E3,4.522594E4,5.7999156E4,2.2420156E3,5.986081E3,1.8131227E3,1.9284414E4,2.0864136E3,3.3939227E2,8.334427E2,7.624116E3,3.738185E2,1.6871592E4,1.175056E3,4.3000647E2,1.1828727E4,6.18264E3,2.8189459E4,1.2545065E4,7.541124E1,1.1271741E2,7.720174E3,7.616219E2,1.9347021E4,2.587892E4,3.4924043E4,2.3075113E4,5.0940884E2,1.7326068E3,9.622414E2,5.0238394E3,7.9297864E2,1.0201441E3,1.0491097E4,8.793317E3,1.6500703E3,4.3634326E2,1.286168E2,2.1077547E2,4.7955215E2,3.538905E2,3.4024546E3,4.2216616E3,1.1407494E2,2.5974356E2,1.1992196E4,4.8793945E3,8.195324E2,3.555236E2,4.0174075E2,2.8265736E1,9.565331E3,2.2633948E3,5.6043955E3,5.782446E2,1.037743E4,1.781203E4,1.0346486E4,2.1985796E3,2.0094404E1,5.531683E1,4.2444237E1,7.027317E1,1.6584954E3,6.061678E3,2.3865167E2,5.229702E2,1.1195095E4,8.1519277E3,1.3489366E4,1.2389555E4,9.322089E3,2.5601953E4,7.4115312E3,1.5663581E4,9.7240204E1,4.1216864E2,3.6448874E2,1.368118E3,1.7627411E2,7.859673E2,2.7679587E2,4.7470435E3,6.70864E1,7.258922E2,9.373055E1,9.264135E2,9.732398E3,7.586984E2,7.81703E3,9.762871E2,9.9715674E2,6.5291364E2,4.1695972E2,1.9383554E1,5.4201996E1,7.441481E1,1.8490462E2,2.5870861E1,4.3716057E1,4.3583612E2,2.0643127E2,1.4745923E2,1.6118755E3,1.7905792E3,3.7586504E3,4.6301102E2],"tree_param":{"num_deleted":"0","num_feature":"27","num_nodes":"127","size_leaf_vector":"1"}},{"base_weights":[-1.2105767E-3,2.0864164E-2,-2.384494E-1,6.024793E-2,-4.416404E-2,-5.619402E-1,6.19726E-1,-5.6372613E-2,1.5163143E-1,2.9668167E-1,-3.09284E-1,-3.2301164E-1,-1.0021045E0,5.6266855E-2,1.0122999E0,1.8553141E-1,-5.137056E-1,3.9596193E-2,5.4065347E-1,4.081147E-1,-8.259536E-2,-4.5616215E-1,-9.612455E-2,-1.3675195E-1,-6.298727E-1,-8.206626E-1,-1.1496997E0,5.20912E-1,-3.8994026E-1,1.3163347E0,7.894458E-1,-2.1749462E-1,3.6386722E-1,-1.9534044E-1,-9.514253E-1,1.8633738E-1,-2.6881206E-1,9.603283E-1,2.11253E-1,6.831159E-2,5.957907E-1,1.8211675E-1,-7.2704494E-1,-2.4727945E-1,-8.1937903E-1,1.6694003E-1,-4.2091867E-1,5.827208E-2,-3.8300583E-1,-4.8993665E-1,-8.827962E-1,1.003831E0,-8.4367996E-1,-1.2292329E0,-1.0512214E0,-2.0055096E-1,8.469492E-1,-7.569152E-1,2.7328007E-2,7.6643735E-1,1.3644737E0,6.075614E-1,1.3908064E0,-9.531676E-3,-5.7794686E-2,6.927202E-2,-9.285353E-4,-5.588466E-2,1.4581245E-2,-8.011993E-2,-1.190209E-1,2.89884E-2,-1.7642295E-2,-4.258845E-2,2.698173E-2,8.3060645E-2,1.2573008E-1,1.0906282E-2,1.2255305E-1,1.0302204E-2,-1.347156E-1,9.033488E-2,2.299486E-2,-1.7482497E-2,4.8587482E-2,-5.199155E-2,-1.0098211E-1,-7.371716E-3,-4.3114733E-2,-6.464651E-2,-9.372239E-2,8.688553E-3,1.0092149E-1,-6.262428E-2,-8.385537E-3,-2.3450145E-2,3.1041963E-2,-5.028972E-2,-1.2315483E-2,-6.929365E-2,-2.4597175E-2,-2.565145E-2,-9.259168E-2,-7.179759E-2,2.1023984E-1,-4.537655E-2,-9.343673E-2,-1.0456367E-1,-1.2512945E-1,-8.78542E-2,-1.1695325E-1,-4.10649E-2,3.475949E-2,1.4432672E-3,9.8935634E-2,-6.0697954E-2,-1.2681212E-1,2.727069E-2,-6.2410027E-2,1.5883674E-1,4.0955306E-3,1.3766134E-1,-2.4408188E-2,7.787146E-2,-1.067184E-2,-1.4498577E-1,1.4234631E-1],"categories":[],"categories_nodes":[],"categories_segments":[],"categories_sizes":[],"default_left":[0,1,0,0,0,0,0,0,0,0,0,0,0,1,1,0,0,0,0,0,0,0,0,0,0,0,0,0,0,0,0,0,0,0,0,0,0,0,0,0,0,0,0,0,0,0,0,1,0,1,1,0,1,1,0,0,1,0,0,0,0,0,0,0,0,0,0,0,0,0,0,0,0,0,0,0,0,0,0,0,0,0,0,0,0,0,0,0,0,0,0,0,0,0,0,0,0,0,0,0,0,0,0,0,0,0,0,0,0,0,0,0,0,0,0,0,0,0,0,0,0,0,0,0,0,0,0],"id":12,"left_children":[1,3,5,7,9,11,13,15,17,19,21,23,25,27,29,31,33,35,37,39,41,43,45,47,49,51,53,55,57,59,61,63,65,67,69,71,73,75,77,79,81,83,85,87,89,91,93,95,97,99,101,103,105,107,109,111,113,115,117,119,121,123,125,-1,-1,-1,-1,-1,-1,-1,-1,-1,-1,-1,-1,-1,-1,-1,-1,-1,-1,-1,-1,-1,-1,-1,-1,-1,-1,-1,-1,-1,-1,-1,-1,-1,-1,-1,-1,-1,-1,-1,-1,-1,-1,-1,-1,-1,-1,-1,-1,-1,-1,-1,-1,-1,-1,-1,-1,-1,-1,-1,-1,-1,-1,-1,-1],"loss_changes":[1.1871593E3,5.3114044E2,5.3575244E3,1.3765332E3,7.069102E3,1.4736113E3,1.1686028E3,6.2780522E3,3.1562537E3,1.4465718E3,1.3775938E3,5.192068E2,1.3109521E2,4.5021353E2,2.0993506E2,2.6677432E3,2.735643E3,2.5446484E3,2.238252E3,1.6870156E3,1.326175E3,1.9762842E3,1.5339226E3,2.7160962E2,1.2101843E2,9.387268E1,1.9983398E1,2.5038254E2,1.6965515E2,3.3777832E1,1.9595435E2,5.0138104E2,3.1574854E3,1.4097004E3,2.9556982E2,1.4311696E3,1.5338098E3,2.7325293E2,9.402954E2,4.6263626E2,1.9172832E3,5.9757513E2,1.3204651E2,5.2782794E2,1.932041E2,6.687477E2,5.5594055E2,2.3310458E2,7.780435E1,1.0935089E2,3.273761E1,5.4575012E1,7.694812E1,4.7543945E0,2.3907959E1,3.836519E1,8.686694E1,4.441107E1,8.318578E1,6.443822E1,2.393164E1,1.691824E2,4.0751526E1,0E0,0E0,0E0,0E0,0E0,0E0,0E0,0E0,0E0,0E0,0E0,0E0,0E0,0E0,0E0,0E0,0E0,0E0,0E0,0E0,0E0,0E0,0E0,0E0,0E0,0E0,0E0,0E0,0E0,0E0,0E0,0E0,0E0,0E0,0E0,0E0,0E0,0E0,0E0,0E0,0E0,0E0,0E0,0E0,0E0,0E0,0E0,0E0,0E0,0E0,0E0,0E0,0E0,0E0,0E0,0E0,0E0,0E0,0E0,0E0,0E0,0E0,0E0,0E0],"parents":[2147483647,0,0,1,1,2,2,3,3,4,4,5,5,6,6,7,7,8,8,9,9,10,10,11,11,12,12,13,13,14,14,15,15,16,16,17,17,18,18,19,19,20,20,21,21,22,22,23,23,24,24,25,25,26,26,27,27,28,28,29,29,30,30,31,31,32,32,33,33,34,34,35,35,36,36,37,37,38,38,39,39,40,40,41,41,42,42,43,43,44,44,45,45,46,46,47,47,48,48,49,49,50,50,51,51,52,52,53,53,54,54,55,55,56,56,57,57,58,58,59,59,60,60,61,61,62,62],"right_children":[2,4,6,8,10,12,14,16,18,20,22,24,26,28,30,32,34,36,38,40,42,44,46,48,50,52,54,56,58,60,62,64,66,68,70,72,74,76,78,80,82,84,86,88,90,92,94,96,98,100,102,104,106,108,110,112,114,116,118,120,122,124,126,-1,-1,-1,-1,-1,-1,-1,-1,-1,-1,-1,-1,-1,-1,-1,-1,-1,-1,-1,-1,-1,-1,-1,-1,-1,-1,-1,-1,-1,-1,-1,-1,-1,-1,-1,-1,-1,-1,-1,-1,-1,-1,-1,-1,-1,-1,-1,-1,-1,-1,-1,-1,-1,-1,-1,-1,-1,-1,-1,-1,-1,-1,-1,-1],"split_conditions":[2.26E2,3.6614037E1,1E0,1E0,1E0,2E0,1E0,5E0,6E0,4E0,3E0,2.76E2,3E0,3.4666668E1,3.36E1,1.92E2,6.7E1,2.19E2,1.67E2,1.92E2,1.06E2,1.47E2,1.52E2,1E0,1E0,2.69E-1,3.4814816E1,2.49E2,2.69E2,2.65E1,3E0,3E0,1.43E2,2.86E2,7E0,4.1E1,1.55E2,8E0,6.1E1,7.3E1,1.46E2,2.8E2,1.58E2,4.7E1,2.34E2,1.53E2,5E0,3.2326088E1,3.3025642E1,2.7456375E1,2.0692308E1,6.2E1,2.65E1,1.6944445E1,2.47E2,7.31E-1,2.6851852E1,4.3E1,3.3333332E1,1.9285715E1,9.2E0,4.4566372E1,2.69E-1,-9.531676E-3,-5.7794686E-2,6.927202E-2,-9.285353E-4,-5.588466E-2,1.4581245E-2,-8.011993E-2,-1.190209E-1,2.89884E-2,-1.7642295E-2,-4.258845E-2,2.698173E-2,8.3060645E-2,1.2573008E-1,1.0906282E-2,1.2255305E-1,1.0302204E-2,-1.347156E-1,9.033488E-2,2.299486E-2,-1.7482497E-2,4.8587482E-2,-5.199155E-2,-1.0098211E-1,-7.371716E-3,-4.3114733E-2,-6.464651E-2,-9.372239E-2,8.688553E-3,1.0092149E-1,-6.262428E-2,-8.385537E-3,-2.3450145E-2,3.1041963E-2,-5.028972E-2,-1.2315483E-2,-6.929365E-2,-2.4597175E-2,-2.565145E-2,-9.259168E-2,-7.179759E-2,2.1023984E-1,-4.537655E-2,-9.343673E-2,-1.0456367E-1,-1.2512945E-1,-8.78542E-2,-1.1695325E-1,-4.10649E-2,3.475949E-2,1.4432672E-3,9.8935634E-2,-6.0697954E-2,-1.2681212E-1,2.727069E-2,-6.2410027E-2,1.5883674E-1,4.0955306E-3,1.3766134E-1,-2.4408188E-2,7.787146E-2,-1.067184E-2,-1.4498577E-1,1.4234631E-1],"split_indices":[12,21,26,26,26,7,7,7,7,7,7,12,7,21,21,3,12,3,6,3,12,3,6,7,7,17,21,12,12,24,7,7,12,3,7,15,12,7,12,21,12,3,12,6,3,12,7,21,23,23,24,16,24,23,12,17,24,6,23,23,18,24,17,0,0,0,0,0,0,0,0,0,0,0,0,0,0,0,0,0,0,0,0,0,0,0,0,0,0,0,0,0,0,0,0,0,0,0,0,0,0,0,0,0,0,0,0,0,0,0,0,0,0,0,0,0,0,0,0,0,0,0,0,0,0,0,0],"split_type":[0,0,0,0,0,0,0,0,0,0,0,0,0,0,0,0,0,0,0,0,0,0,0,0,0,0,0,0,0,0,0,0,0,0,0,0,0,0,0,0,0,0,0,0,0,0,0,0,0,0,0,0,0,0,0,0,0,0,0,0,0,0,0,0,0,0,0,0,0,0,0,0,0,0,0,0,0,0,0,0,0,0,0,0,0,0,0,0,0,0,0,0,0,0,0,0,0,0,0,0,0,0,0,0,0,0,0,0,0,0,0,0,0,0,0,0,0,0,0,0,0,0,0,0,0,0,0],"sum_hessian":[2.2668556E5,2.0738919E5,1.9296363E4,1.2916289E5,7.8226305E4,1.4014076E4,5.282287E3,5.6745973E4,7.2416914E4,3.4225246E4,4.4001062E4,9.08456E3,4.929517E3,2.1695242E3,3.1127627E3,3.711485E4,1.9631121E4,5.622552E4,1.6191398E4,2.6453137E4,7.7721084E3,2.6050055E4,1.7951006E4,5.6540737E3,3.4304854E3,2.2141616E3,2.7153557E3,1.0627217E3,1.1068026E3,1.3145055E3,1.7982571E3,1.1385109E4,2.572974E4,1.1365869E4,8.265252E3,3.8098555E4,1.8126963E4,7.119208E3,9.07219E3,9.412457E3,1.704068E4,5.509685E3,2.2624236E3,1.653983E4,9.510224E3,9.918266E3,8.0327397E3,3.1556658E3,2.498408E3,2.210442E3,1.2200435E3,2.7054434E1,2.1871072E3,1.4958185E3,1.2195371E3,3.3089474E2,7.3182697E2,5.884577E2,5.1834485E2,1.0717333E2,1.2073322E3,1.382211E3,4.1604608E2,8.503912E3,2.8811978E3,1.3676245E4,1.2053495E4,5.502351E3,5.8635186E3,5.076088E3,3.1891643E3,2.9638668E4,8.459887E3,1.4034501E4,4.0924622E3,4.9574985E3,2.1617095E3,8.24282E3,8.2937067E2,9.188072E3,2.2438498E2,9.256993E3,7.783687E3,2.5332842E3,